597 100
the 0.146661 -0.0871834 -0.092546 -0.147193 -0.0421428 0.047238 -0.0142581 -0.138431 -0.095086 -0.129432 0.0483968 0.188397 0.0905006 -0.0310333 -0.0146528 0.102252 -0.020035 -0.0832008 -0.0075561 -0.041603 0.103246 -0.0230049 0.127852 -0.04186 -0.0496158 0.0610462 -0.0395586 0.149211 0.0732346 -0.0839132 -0.232586 -0.128159 -0.127661 -0.0131598 0.0482592 -0.00704054 0.0192066 -0.082209 0.0353909 -0.0664078 -0.114002 0.153236 0.204454 -0.0604085 0.160272 0.0387166 0.0170767 -0.0503198 -0.0828396 -0.0322638 0.0364773 -0.0249489 -0.0847113 0.119561 -0.0818817 0.0919372 0.151664 0.122338 0.0624699 0.108343 -0.0222646 -0.090399 0.0130699 -0.0843604 -0.0331982 -0.151747 -0.0629541 -0.118526 -0.188603 -0.0220632 0.095059 0.124138 -0.00954654 -0.18293 0.070234 0.0697287 -0.132157 0.0197247 0.0401914 0.203865 0.210205 -0.0877104 -0.120641 0.0815634 0.0665653 0.142892 0.042213 0.143166 -0.121672 -0.125193 0.133474 0.0665652 -0.0821107 -0.145578 -0.0123932 0.0555535 -0.0335312 -0.0986812 -0.0298957 0.0154196
she -0.0368829 -0.117532 0.0827227 -0.112867 -0.0465111 0.00997159 0.0144348 0.0184781 0.0320117 -0.0790386 -0.0833383 0.0904957 -0.0936746 0.0746299 -0.139559 0.0634964 -0.0238963 0.0479859 -0.000754723 0.0398906 0.11318 -0.103564 -0.0703807 0.0154339 0.109097 -0.118144 -0.0795577 -0.0948635 -0.0923278 -0.0560041 0.109595 -0.144932 -0.0537868 -0.0385099 0.0417047 0.0454559 -0.00320256 -0.0326438 0.148116 -0.041096 0.0937553 -0.00696978 0.0844939 -0.113833 -0.12835 -0.0232677 -0.0162104 0.0159746 -0.148406 -0.0749463 -0.0320516 -0.024084 -0.043844 -0.124983 -0.061297 -0.152138 -0.0332064 -0.00194718 0.0251747 0.0391959 0.0140435 -0.0293083 0.0180904 -0.106069 -0.0525564 -0.0742186 -0.00359718 0.00651615 0.0293332 -0.071806 0.166692 -0.144582 -0.0569503 0.00805652 0.109641 -0.0597815 0.0628065 -0.131314 -0.0935568 0.11417 0.0401986 0.159553 0.00587868 0.0679057 -0.0432251 0.0663142 -0.0888722 0.0479488 0.0882944 0.0181111 -0.0118636 -0.110663 0.107641 0.0405613 0.154169 0.136579 0.135111 -0.121301 -0.0590354 0.118314
to -0.074343 -0.0469389 0.00596972 -0.0853592 -0.0459632 -0.0839557 -0.127647 -0.104441 0.0127033 0.101437 0.0570902 0.0254936 -0.0605489 0.103368 -0.0113973 0.0444358 0.105721 0.00116287 0.110323 -0.140886 0.00263392 0.0781567 -0.0590501 0.0750856 0.0680486 -0.0603148 0.0682813 -0.100745 -0.0491891 0.0165328 0.0133654 0.0399549 -0.0766547 -0.0715255 0.0554951 0.0282439 -0.0936704 0.130455 -0.00672418 0.0779749 -0.15371 -0.0370257 0.0544725 0.0714936 0.121373 0.0686868 -0.0829504 0.0588652 -0.0477273 0.0482382 0.0487381 -0.0651669 -0.00776553 -0.0687229 0.0623627 -0.041416 -0.0905072 0.0438813 0.0768697 -0.0132682 0.00575522 0.103038 0.015977 -0.0621211 -0.0711613 0.0538013 -0.0242645 -0.0595449 0.0599789 0.0372387 -0.0163629 0.0585514 -0.0993465 0.028808 0.0682371 0.00220874 -0.0581188 0.0949494 0.126286 0.0143538 -0.00812179 0.178105 0.0257748 0.133254 0.0918221 0.12334 0.0685508 0.10196 0.0979313 -0.031049 -0.0807391 -0.0594348 -0.132586 -0.0650941 -0.0414628 0.091316 0.0466795 0.000719957 0.060301 -0.077464
it -0.0242049 0.0704435 0.0306529 -0.0158776 -0.126031 0.0201567 0.0632654 -0.0227987 0.0420989 0.100939 0.10174 -0.0111594 0.0460214 -0.0302294 -0.0531469 -0.107672 -0.036271 -0.121118 -0.00515344 0.138828 0.100275 0.0278314 0.0918472 -0.0713467 0.0735585 -0.0630834 -0.0188712 0.038225 -0.012555 0.0768234 -0.0153474 0.0664474 0.00502334 0.13301 0.0911394 -0.028387 -0.0226062 0.0505547 0.108142 0.0778499 0.0678679 0.033004 -0.080458 0.0212087 -0.043393 0.0690013 0.0236538 0.0178401 -0.0714792 -0.0611418 0.0341824 0.101704 0.104949 -0.0286481 -0.0888385 -0.0777651 -0.0234559 -0.0322438 0.063192 -0.071695 0.0447076 0.0552058 -0.0641161 -0.0430364 -0.0501127 0.0271619 0.0273377 0.0444988 -0.038083 -0.0919254 0.0909357 0.0757676 -0.121751 0.0587163 -0.03776 -0.131025 0.0787257 -0.00178056 -0.108131 0.108374 0.103458 0.144004 -0.0956236 0.0268873 -0.0499696 0.0286767 -0.0907728 0.110301 -0.0357642 -0.0813009 0.0370838 0.0496065 0.0759227 -0.0997173 0.0832455 0.0989395 0.0203578 0.103132 0.095387 0.0511288
and 0.106721 -0.0127929 -0.0861615 0.0198089 -0.0873601 -0.14326 0.075778 -0.0284569 0.0773613 -0.00995246 0.0813489 0.0400064 0.00233066 0.0896352 0.0195589 -0.0532084 0.112767 0.0575099 -0.0407631 0.00626706 0.104536 -0.0842888 0.0609544 0.0528849 -0.0541809 0.0783035 0.0614788 0.0504822 0.0170632 -0.0667405 0.0140874 -0.113104 0.0353012 -0.11221 0.0458531 -0.0140845 0.0747415 -0.0246896 -0.0586833 -0.0912909 -0.0486497 0.108653 -0.01547 -0.100651 -0.0885259 0.042645 0.114304 0.0373153 0.0259094 -0.0276819 0.0734521 -0.0953431 0.0172868 -0.0984508 0.0275399 0.0149509 -0.0335867 0.0272022 0.0243633 -0.036215 0.116011 0.0921358 0.0294304 -0.0568744 0.0302792 -0.121716 -0.000794564 -0.0215625 0.186316 -0.0954752 -0.0495095 -0.00441419 -0.0679792 -0.107283 -0.11003 0.0767312 0.0536787 -0.051216 0.0256675 0.0569639 0.106125 0.132463 -0.0502928 0.0852867 -0.0317008 -0.0497735 -0.110166 0.0331519 -0.10037 -0.0572383 0.0951407 0.0209111 0.0468881 -0.102318 0.0311112 0.070495 -0.0198447 0.00265195 -0.0320234 -0.0314811
was -0.00538869 -0.00875506 -0.0916488 0.052668 0.0710381 -0.126508 -0.0526045 0.0170265 0.00738515 -0.0413986 -0.102066 0.0780115 0.0498789 0.0289198 0.0357331 0.0656131 0.133754 0.0790352 0.0663547 0.00497943 -0.0218595 -0.100577 0.0726376 -0.0221083 -0.130709 0.0818547 0.117153 -0.0612566 -0.070607 -0.0561341 0.0797221 0.0205961 0.0518338 -0.0282159 -0.132248 -0.106883 0.116567 0.0874334 0.00119305 -0.0785334 0.0812605 0.0726319 -0.0204043 -0.0729576 0.0295659 0.126664 0.0117731 -0.0322084 0.084558 0.0939067 -0.113008 0.129161 -0.0897367 0.100506 -0.0376957 0.145222 -0.061206 0.0758891 0.0812895 -0.0603458 -0.0226694 -0.0693798 -0.048711 -0.043475 0.0417206 -0.0534001 -0.080126 0.164922 0.0222633 -0.0223723 -0.00127248 -0.066057 0.0738128 0.0744329 -0.0793967 -0.0780374 0.062221 0.127697 -0.0480933 0.00888108 0.0510845 0.0824605 0.0679385 -0.0630373 0.0301587 -0.0879204 0.117876 -0.0678899 -0.0792935 0.0479864 0.0890955 -0.0970442 -0.108601 0.0222163 0.0574604 0.00515981 0.111162 0.0654782 0.163489 0.00869153
a 0.0589816 -0.147793 0.0555508 0.0409 0.0491698 0.016469 0.0839637 -0.148675 -0.00985573 -0.0113894 -0.0704198 0.0965178 0.118131 -0.035363 0.0629443 0.148963 0.107612 -0.105696 -0.108129 -0.0426163 -0.0400839 -0.0320176 -0.0940625 0.0385794 0.0628617 -0.0887866 -0.100151 -0.0510705 0.0390644 -0.0245789 -0.0525104 -0.117928 0.00945552 0.125841 0.067185 0.0052053 0.120153 -0.0135165 0.0951675 -0.0349204 0.0352891 0.125014 0.108647 -0.0558815 -0.0428852 0.0576853 -0.0372244 0.0306995 -0.055479 -0.0496022 -0.0524981 -0.139931 -0.130141 0.00395729 -0.144636 0.0258955 0.0361625 -0.051661 -0.0540713 -0.0245243 -0.0929671 -0.0116077 -0.0794983 0.0362391 0.0413705 0.0532295 -0.138878 -0.0507941 -0.00692693 -0.104679 0.145018 -0.126988 -0.0647947 0.0218352 -0.058638 -0.0398322 -0.0859406 0.0662199 -0.00521377 0.144203 0.0415659 -0.0455309 -0.101525 0.161863 0.0901941 0.0472319 0.0416058 0.0707771 -0.0427475 -0.0112678 -0.0569084 -0.0559881 0.0220353 -0.0605556 0.0854778 -0.0971062 0.130056 0.0697876 -0.059353 0.11885
of 0.0710582 -0.0459282 -0.130136 0.0887103 -0.0874083 -0.100348 -0.0166305 -0.0236999 0.0156838 0.0853708 0.0386029 0.0303094 -0.0605841 0.00319651 0.0380134 0.0830733 0.0405767 -0.0161946 0.103073 0.0564877 -0.00346615 -0.0825546 -0.0945117 0.0941977 0.10368 0.0890009 -0.0400773 0.0240871 0.0531833 -0.0852763 -0.0231146 -0.086846 0.064715 -0.0641455 0.0631296 -0.0432326 0.0999759 -0.0764184 -0.116556 0.0621715 -0.108002 0.0888148 0.0151249 -0.0469278 -0.0159716 0.0509752 -0.107739 -0.0775917 -0.134245 -0.000496454 0.0150159 0.0246746 0.0913139 -0.173874 -0.05685 0.0984642 0.0226264 0.0661886 -0.0655678 0.101286 0.0185418 0.128894 -0.0191828 -0.067953 0.0462154 -0.0234065 0.0153846 -0.0650334 0.0276863 0.105198 -0.078128 -0.101174 0.0528656 -0.0451574 -0.0641149 0.0918806 0.0310115 0.0866866 -0.0230996 -0.086106 0.0994961 -0.0528669 0.0603243 -0.037428 0.143322 0.0391873 0.0187862 0.0469231 -0.142003 -0.0524663 0.124431 0.104732 0.126821 -0.104384 -0.0117159 -0.121862 -0.0682657 -0.0708194 -0.0754131 0.0369707
in 0.0295518 -0.114869 0.0348557 -0.0692584 -0.0164804 -0.117341 -0.0347008 -0.0794213 0.0868762 0.0186864 0.0702998 -0.0787748 -0.0795633 0.0100475 -0.110619 0.108236 0.0471034 -0.0899383 0.0563941 -0.0539729 0.0471965 0.0589553 -0.113149 0.115923 -0.0717428 -0.0214131 -0.0607646 0.0702519 0.0522079 -0.0402304 0.10289 -0.0515148 0.0403948 0.109001 -0.0176821 -0.122839 -0.0409845 0.0157416 -0.00507035 0.0137376 -0.0430194 -0.0684351 0.0865457 -0.131247 -0.0371252 0.0462152 -0.0236778 -0.0570203 0.0518584 -0.00623217 -0.0725052 0.0381837 0.0949834 -0.121634 -0.0814134 -0.0193781 -0.0316445 0.0514029 -0.0440768 -0.0368464 0.0876069 0.0475632 -0.0651892 0.0190684 -0.0149722 -0.0691539 -0.107793 -0.0942962 0.0968348 0.00258305 0.0924348 0.0392991 -0.0011342 -0.011641 -0.00542738 0.0551597 0.0926732 0.00801298 -0.101069 -0.0764658 0.00567282 -0.087371 -0.0645434 -0.0372548 -0.0563428 -0.119747 -0.0902193 -0.0947279 -0.0165253 0.0934899 -0.0695912 0.0351466 0.0471936 0.0177934 0.000919143 -0.00185436 0.0762242 -0.110729 0.11911 -0.0391027
’ -0.087534 -0.0358648 0.0942847 0.0129631 -0.0536363 0.00348653 0.0860919 0.0489532 0.0907301 0.0416062 0.0367381 -0.0960827 0.0338502 -0.0978751 0.0184138 -0.116964 0.0663287 -0.0906476 -0.0221713 0.0950266 0.0452498 -0.0754131 0.0440528 -0.11063 -0.060126 0.110094 0.0428138 -0.065569 0.0805742 0.0563991 -0.0363153 -0.0217331 0.127878 -0.0236079 -0.0890375 -0.0517791 0.0233653 0.0478983 -0.0253827 0.0815368 -0.0414207 0.109014 -0.0661495 0.0391177 -0.0584764 -0.093163 -0.0913788 -0.0470147 0.0909218 -0.071827 -0.0329642 -0.0319243 0.0726401 -0.0138326 -0.0785266 -0.0491318 0.0938234 -0.0793302 0.017232 0.0976345 0.0869334 0.0584087 -0.0267309 -0.0711744 -0.0859195 -0.0544374 0.0151132 0.047322 -0.0727416 0.0838982 -0.0408486 0.0703193 -0.0491458 0.0431987 -0.110535 -0.0363607 -0.0352462 -0.0454189 -0.0601071 0.0742949 -0.0781028 -0.0953824 -0.0748207 -0.0860336 0.027344 -0.0652992 0.0534976 -0.0530702 -0.0458529 -0.0258471 0.0588381 -0.0664062 0.0851153 0.0590556 -0.0227642 -0.0427226 0.00597933 0.036203 0.0418037 -0.0345344
down 0.0214534 0.0787549 0.0463881 -0.0222816 0.0485852 -0.0896746 0.0660099 0.0906623 0.00694169 -0.0139999 0.022494 0.0610205 0.0633128 -0.0181049 -0.0158702 -0.0422055 -0.0902015 0.050185 0.0272864 0.094499 -0.0339459 -0.0962417 0.0861902 -0.0317845 -0.0212093 0.0335625 -0.0853475 -0.0602358 0.0513682 0.0776794 0.00386011 0.107426 -0.0716444 -0.0357648 0.0748265 -0.0940336 -0.0739225 0.00672912 -0.0803861 0.0719423 0.0155567 0.0967828 0.0488359 0.0221475 -0.0182598 -0.0832684 0.043776 0.0805169 -0.0054593 0.077084 -0.0690709 0.0099595 0.099122 -0.144973 0.0379734 -0.0310585 0.0280775 -0.0288309 0.10944 0.0392232 -0.0329526 -0.0331619 -0.0574162 -0.12048 -0.0303201 -0.0696268 0.00712775 -0.0414724 0.116315 -0.0892894 0.0734085 -0.0742375 0.0357978 -0.0773751 0.0879914 -0.0601108 -0.0301524 0.113102 0.0387809 -0.0292719 0.0593691 0.00942932 0.0173535 0.000461301 0.0766652 -0.0894063 -0.0290489 -0.0779481 0.0105049 -0.00512879 0.0103792 0.0427671 -0.0560583 -0.0489963 0.055378 0.0675311 -0.0298023 0.109304 0.0547647 0.101498
alice -0.0167188 -0.00562398 0.0038582 0.0837862 -0.0713974 0.0784828 0.0353468 0.102593 -0.0345177 0.0944624 0.051754 0.079022 0.0564836 -0.061879 -0.0801528 -0.071173 0.0666409 0.063675 0.0906915 -0.00429392 -0.035641 -0.0219123 -0.104575 -0.105652 -0.0493122 0.0131909 -0.0379194 -0.0222032 -0.00990906 -0.033196 0.0894616 -0.00101739 -0.105055 0.0377486 0.0729506 -0.0597007 0.050839 -0.0571278 0.0945706 -0.0110785 0.0867988 0.0455164 -0.0227505 -0.0252096 -0.0984472 -0.0380188 0.0361733 0.0689787 0.0277168 0.0302176 0.088596 0.0578593 0.00757398 -0.0934762 -0.0492866 -0.0771173 0.0765544 -0.00801545 -0.0524454 -0.00439097 0.0457856 0.00247904 -0.10135 0.0242615 0.00599084 -0.0879558 0.0491593 -0.113182 0.0349955 -0.00123172 0.0129248 -0.0598696 0.0744373 0.0455228 0.11269 0.0991643 0.000579188 -0.106633 -0.0999598 0.0384176 0.00957695 -0.00661614 -0.0864118 -0.0887371 -0.0207346 -0.0507451 -0.00172511 0.0944878 0.094155 0.094596 0.0686433 -0.123511 0.103424 0.0407345 0.0912191 -0.0596426 -0.00196004 -0.0773722 -0.00163709 -0.00196009
her 0.0148452 -0.0328926 -0.0626559 -0.103802 -0.00856901 0.0486839 0.0513212 -0.0883799 0.055731 0.0685947 0.0482725 -0.0915441 0.00191099 0.0774888 -0.0469402 -0.0177006 -0.0766955 0.0511943 0.0820821 0.00921409 -0.0529455 -0.111363 -0.00521656 -0.110372 -0.0368312 -0.0972292 0.0835773 0.0114552 0.0498844 -0.091027 -0.0692309 0.00669285 -0.013419 0.0772885 -0.10256 -0.0697855 0.0240087 -0.0399974 -0.0951925 -0.00337166 0.0996853 0.0613647 0.0108305 0.0426537 0.121995 0.0964228 -0.0052867 0.0103376 -0.0713954 -0.110395 0.0469454 0.0963576 0.0423594 0.0481892 -0.124867 0.0510351 -0.0315741 -0.0445803 -0.0700401 0.0550114 -0.0887305 -0.0498606 0.00945126 0.0619503 0.0727665 -0.0525121 -0.0914845 0.0734291 -0.124463 -0.0866254 -0.078349 0.0248177 0.0350976 0.110041 -0.00514272 -0.0936996 0.0539262 0.0995106 0.0425807 0.0740046 0.0471379 -0.0798173 -0.0405607 0.0415363 -0.0144883 0.10792 -0.0154447 -0.0837893 -0.0837847 -0.0529527 -0.0365737 -0.0536978 0.00114001 0.108887 -0.0303567 0.114142 -0.0943095 0.0770529 0.0549435 0.00493121
that -0.0302796 0.0784918 -0.0156687 0.0401696 -0.0240843 0.007085 -0.0672283 0.00873052 -0.0780868 -0.0570761 -0.0976015 0.00515704 -0.00359912 -0.0300814 0.0268173 -0.0725254 -0.0675635 0.00840254 0.104424 -0.0887523 0.0815932 -0.131567 0.0698858 -0.0330322 -0.0751476 0.0509265 -0.0555867 -0.0823715 0.0705487 0.0511051 0.0474547 -0.0147232 0.0767164 0.0821744 -0.0556353 -0.125563 -0.0585425 -0.00282889 -0.0649069 0.0862777 0.0309396 -0.0618514 -0.108484 0.0326196 0.0496892 -0.0967108 0.0446989 -0.0448002 -0.0705727 -0.0964743 -0.0706919 -0.0532317 -0.0882596 -0.0901437 -0.0775268 0.0508377 0.00457967 0.082676 0.00107041 -0.0652494 -0.0793743 0.0471698 -0.00905968 -0.0780607 0.0283038 -0.0653277 0.0410213 0.0121438 -0.058208 0.0813757 -0.0157823 0.0801799 -0.0056142 -0.0492015 -0.00967369 -0.0839309 0.0458898 0.0351189 -0.0282191 0.0968368 -0.02955 0.0339699 0.00658255 -0.0614514 -0.019139 -0.0116689 0.0252739 -0.0906365 0.0388959 0.0204104 -0.0614585 -0.0758188 0.0759225 0.0584182 -0.0160334 0.0528163 0.0590022 0.0269249 0.109561 0.025126
i -0.00260024 -0.0313708 0.0475509 0.016775 -0.057065 -0.0497477 0.0506144 -0.0321799 -0.0489794 0.0870628 -0.00894591 0.0548647 0.0657066 0.0576612 0.0274308 -0.102212 -0.0367797 -0.0236615 0.00885565 0.0562672 -0.0348387 0.0374063 -0.0326177 -0.00759188 0.135375 -0.0285347 0.11687 -0.065799 -0.0496985 -0.0589503 -0.0450015 0.0984954 0.0782284 -0.00980617 0.0202896 -0.097157 -0.101078 0.134309 0.128791 -0.0197565 -0.0376098 -0.0477931 0.0662747 0.00901482 -0.0699839 0.0584614 0.0707434 -0.0471982 -0.102622 -0.0747207 0.10025 -0.0112948 0.076333 0.015343 0.076737 0.0912394 -0.033936 0.07205 -0.0926144 0.035462 0.136457 0.0916412 -0.0172711 -0.00249452 0.0710652 0.0515423 -0.0352084 0.0829735 0.0255696 -0.0719421 -0.0133363 -0.0622042 -0.0877988 -0.0528793 -0.0208632 0.0730328 0.0988984 0.0853758 -0.061994 -0.10231 -0.100912 -0.0860817 0.0592101 0.007354 0.130815 0.0017985 0.000782188 0.0523485 -0.00454878 0.102369 -0.0624159 -0.0922473 0.0303902 0.0594242 0.0101175 0.0469319 -0.0209809 -0.0396657 -0.00722916 0.0641871
very 0.078709 0.00592613 0.030395 -0.0784191 -0.0314526 -0.0982041 -0.0596292 -0.0130591 -0.0837416 0.0213601 -0.0713497 0.0752533 0.0172134 -0.0508312 0.0259808 -0.0368504 -0.0399761 0.0538621 0.0467082 -0.0488814 -0.0369257 -0.105568 -0.0407865 -0.0741046 0.0930253 -0.0929407 0.0218043 -0.106791 0.0646239 -0.0509199 -0.0113106 0.0675131 0.0130044 -0.0156765 -0.033436 -0.0380567 -0.09098 0.0226176 -0.0483983 0.0443435 -0.0187996 0.00101318 0.060865 -0.0673649 0.0667374 0.0304352 -0.0438312 0.0641861 0.0513418 0.000346759 -0.0763546 -0.0720686 0.0312278 0.0275524 -0.117767 0.0482184 -0.0829107 0.0271825 0.024564 -0.0911892 0.0846375 -0.070271 0.0123262 0.0351809 0.101584 -0.0672116 -0.100911 -0.0522649 -0.0483116 -0.0733095 0.0580937 -0.087585 0.0381374 -0.0113527 -0.0371578 -0.0208595 -0.0389065 -0.0808948 -0.0368299 -0.0576316 0.0701655 0.0802775 0.0188592 -0.0692614 -0.0494951 -0.0348614 0.0418789 -0.0579968 -0.0730792 -0.0305971 -0.0461802 0.0385639 -0.0486133 -0.0251063 0.0985461 0.0137273 -0.0594887 0.0709627 0.0155592 -0.0697271
you -0.0504189 0.0015395 -0.0670574 -0.0348543 0.0195008 -0.0546506 -0.0487173 0.0363763 0.0333031 0.0621489 -0.0426909 -0.0611454 0.0543208 -0.0697152 -0.0838393 -0.0248945 0.0656963 0.0333639 0.00479065 0.0596856 -0.0723408 0.113777 -0.00546978 -0.0610032 0.0699915 -0.0752929 -0.0698826 -0.0145866 -0.101751 0.104648 -0.0122188 0.108647 0.0479759 -0.0090425 -0.0686948 -0.0457895 -0.0913867 -0.00985674 0.0612497 -0.128058 -0.0981223 0.0135132 -0.0789771 -0.0384933 0.0472043 -0.0354996 0.08014 -0.0452563 -0.0401102 -0.0243691 0.0159712 0.0943559 0.0548004 0.0886749 0.04106 0.0469918 0.0664789 0.0705458 0.0624576 -0.112054 -0.0788302 0.10609 -0.1022 0.086732 0.0151729 -0.0378374 -0.0142689 -0.0631036 -0.00356963 0.00482534 -0.0133307 0.111766 -0.00345032 -0.0409859 0.0326679 -0.0615091 0.0643188 0.00611009 0.0485688 0.102556 -0.114047 -0.0784993 0.080234 -0.0123055 -0.0213239 0.0511669 -0.0299468 -0.0217611 -0.00663152 0.0542676 -0.0649553 0.108735 0.124467 0.0796131 -0.0438565 0.0247039 -0.0626622 0.103522 0.0546532 0.0545338
had 0.0357765 -0.0535126 -0.100133 -0.00479704 0.0105594 -0.00112105 0.0417853 -0.0419443 0.0475005 -0.0193012 -0.054794 0.0443783 -0.0288469 0.0111597 0.0932829 -0.0559076 -0.0282542 0.11234 0.0974884 -0.014342 0.130208 0.0592321 0.0993624 -0.0541315 -0.0973659 0.0172606 0.0186109 0.0734497 -0.0315086 0.0190767 -0.00726546 -0.0688673 0.112702 0.0500433 -0.0437101 0.0603697 0.104756 0.0140508 -0.0480177 -0.0582274 0.0860382 -0.0163624 0.0732704 0.0693541 0.0244291 -0.0435137 -0.0159124 -0.0590016 0.00284252 -0.0208557 0.0542673 -0.00325516 -0.0314059 -0.0328267 -0.016139 0.0671355 -0.0180077 0.088856 0.0898985 -0.055305 0.036395 -0.0501173 -0.00569162 0.0417047 -0.00856906 -0.0273412 0.0637093 0.0891955 -0.117223 0.0993091 -0.028702 0.0207674 -0.074238 -0.0324298 0.0896924 0.0482334 -0.0513499 -0.0126492 -0.10249 0.124944 -0.0433047 -0.0424512 0.0327913 -0.0938722 -0.053033 -0.0394803 -0.0278889 0.0632004 0.0227331 -0.0527224 0.0223112 0.0304884 -0.110872 0.090703 -0.00152875 0.0506088 -0.0730209 -0.0661755 -0.0684169 0.00905745
but -0.0387472 -0.041058 -0.0449371 0.0851387 0.0246212 -0.000107322 -0.0999715 0.0632965 0.0186697 -0.0151232 0.0572452 0.00700594 -0.0764508 -0.014485 0.0139206 0.0107628 0.118854 0.0184127 -0.0779484 -0.0682289 -0.0027314 -0.0708009 -0.0283879 0.0842972 0.0782209 0.0832234 0.000432932 -0.0826809 0.0621532 -0.0277188 0.0332407 -0.0658877 0.0444698 0.0532627 0.0037427 0.0401542 -0.0291951 0.0488559 0.0318698 -0.0922307 0.0662969 0.0414701 0.0868175 0.103497 0.00561078 -0.0701315 -0.00707926 0.0551535 -0.00564737 -0.00650938 -0.0664346 0.0329323 -0.0513105 0.0617296 0.0248967 0.0230868 -0.0821947 -0.0677842 -0.0395441 -0.0800514 -0.0530514 -0.0157034 -0.107896 -0.0241471 -0.00382003 0.0870564 0.0392402 0.0957333 -0.0273643 -0.0170098 -0.0975558 -0.00163435 -0.00753703 -0.0456178 -0.00830007 0.0996443 -0.0230222 0.0457112 -0.0127181 -0.0178221 -0.0324036 -0.0478424 -0.0162552 0.0105057 -0.0521647 0.0835688 0.0780322 0.0652835 0.107314 0.0655509 0.042084 0.0352065 -0.00026033 -0.02793 -0.0911839 0.0534611 -0.0122329 0.0537364 -0.0930426 0.0306129
for 0.00407958 0.103393 -0.00973977 -0.0732104 -0.00410818 -0.112038 0.0103586 -0.0152728 -0.0618524 0.0397158 -0.0416119 -0.0134599 0.0888305 -0.0641374 -0.0923549 0.0301996 0.112347 0.064955 -0.0337945 -0.0181607 -0.00411251 0.0644173 0.0400051 -0.087481 0.0638839 0.0407857 -0.00267616 -0.0770435 -0.0361603 0.0392832 0.0713508 0.100972 -0.0638626 0.0259761 0.0706115 0.0278501 -0.00791878 -0.0715409 0.00795976 0.0441129 0.0298453 0.0822445 0.0568102 0.00649471 0.000912823 0.0651184 0.0113375 -0.0165804 0.0771488 -0.0783166 -0.0648564 0.0443572 0.0813048 -0.104705 -0.0850654 0.0354718 -0.0542326 -0.101062 0.0773154 -0.0236995 0.0256821 -0.0118737 -0.0253247 -0.0105748 -0.0566337 0.0712866 0.0933137 -0.0514005 0.0451988 -0.0972429 -0.0549309 0.0792674 -0.0622737 0.0321514 0.0493404 0.0572784 0.0633781 0.0407957 -0.0549274 -0.0732482 0.0706079 -0.0392214 -0.0307578 -0.0481918 -0.0841713 -0.059672 -0.0153293 0.0319009 0.0424247 0.0624847 0.0440237 0.0579742 -0.0344607 0.0685863 -0.0281405 -0.115389 0.025728 0.0511098 -0.0295329 0.0440611
or -0.058663 -0.0212862 -0.0821024 0.00358254 0.0137236 -0.0281231 -0.0924961 -0.0579272 -0.00132064 -0.117635 -0.0413134 -0.0311709 0.0370087 -0.0505006 -0.118947 0.00798958 -0.0287987 -0.0349497 -0.00701104 -0.0631726 0.0959634 -0.0112181 -0.0950435 -0.0404537 -0.0302198 -0.0183487 0.0438067 0.0859047 -0.0219568 -0.105386 -0.0605914 0.030569 -0.0373989 0.0874194 0.0256802 -0.0295081 0.0107663 -0.00803189 -0.055818 0.0804768 0.0428292 0.106021 0.0502712 0.0231138 -0.00656677 -0.0366437 0.0742912 0.108354 0.0955786 0.00961219 0.00275241 0.0240752 -0.0882895 0.0759397 -0.0491356 -0.0838238 -0.0757742 -0.0202386 0.0540147 0.0114237 0.0286307 -0.0746368 0.068736 -0.0675212 -0.0504967 0.0275276 0.0466678 -0.0674552 -0.0601139 -0.0525316 -0.0663136 0.0834148 0.050617 -0.0794867 0.0717733 0.0292149 0.100335 -0.0809444 -0.0730114 -0.0262838 -0.0689668 0.0426678 0.0540355 -0.0211024 0.0192703 -0.0180313 -0.0873558 0.0484577 0.0776146 0.0161684 -0.0713905 -0.029871 0.0276919 -0.0426234 0.033292 -0.0907688 -0.0765781 0.0820074 0.0483622 0.0320179
as -0.0274158 0.0305872 -0.0723863 -0.0751422 0.100921 -0.0672286 -0.09186 0.0753636 0.0415304 -0.0647029 -0.00359374 0.00906783 -0.0313123 0.0331397 0.00239304 -0.00272804 0.0820857 0.0710327 0.0310599 0.0530115 0.0356741 -0.0607924 0.0775604 0.0821546 -0.0711585 0.0629011 -0.0746739 0.0282099 -0.0274571 0.0632734 0.0277929 -0.0146064 -0.0351364 -0.076378 -0.0483358 -0.0819508 0.0670715 -0.0738296 0.01333 -0.0777756 0.0873151 0.00106345 -0.0416974 0.0407485 0.00543083 0.0691611 0.0391857 0.109721 0.0727375 -0.0156531 0.0836262 0.0669354 -0.0967553 -0.0279562 -0.0762504 0.0601376 0.0104603 0.0584249 -0.0645671 -0.0401451 0.0749437 0.0617312 -0.0740758 0.0636282 -0.00692875 0.0396043 -0.0312976 0.00648736 -0.00543124 0.068896 0.0799915 0.115964 -0.0827895 0.0766719 -0.0255977 0.0521122 0.109591 0.0394108 -0.0886531 -0.104011 -0.0505504 0.0835811 -0.0802776 -0.00123696 -0.0605002 -0.0699269 -0.0178357 -0.00245762 -0.0504603 -0.00196184 -0.0759186 -0.03367 -0.0141157 0.0490497 -0.0948386 -0.0373371 0.0918296 0.0309235 0.0775557 0.0481052
not -0.122107 -0.102742 -0.0233048 0.0836315 0.0578917 0.0766554 0.0633495 0.0362711 0.108485 -0.0256894 -0.0880539 0.0159621 -0.0354713 0.0198482 0.112683 0.0541269 0.0312001 -0.0599606 0.0942628 0.00195484 0.0284261 -0.0907221 0.0634376 0.052241 0.000781417 0.00422382 0.025182 0.084958 -0.0307134 0.013818 -0.0449536 0.0147158 -0.0697113 -0.0409051 -0.025479 -0.0787285 0.0408582 0.0745335 0.0277318 0.034637 0.0339723 0.00717823 0.0715644 -0.0410351 0.0883848 -0.0792911 -0.0231115 -0.00250985 0.0710208 0.0319822 -0.0507744 -0.00794092 -0.0417957 0.0392058 0.0546184 -0.125227 0.0518413 -0.0730084 0.0661777 -0.105226 -0.101642 -0.00111279 0.0188349 0.0632493 -0.0871349 -0.0159979 -0.0156477 0.0712739 0.024706 -0.00350048 0.0749097 -0.0801939 -0.0242252 0.00142373 -0.0481881 0.07628 -0.0122845 0.0709576 0.0690419 -0.0700651 -0.0659692 -0.0710629 -0.105536 0.0246693 -0.0341082 0.0304745 0.0420529 -0.0361513 0.0645229 0.0869416 -0.0606929 0.0412725 0.0342097 -0.0400329 0.0582938 0.0715707 0.0590528 0.00148204 0.0505807 -0.0614103
this -0.0421661 0.0578627 -0.0246424 -0.0661863 0.0836965 0.0452596 -0.0796971 0.00427409 -0.0735692 0.0283293 0.0678549 0.0617915 0.0731772 -0.0551996 0.0537472 -0.00875586 0.0869721 -0.0761529 0.0619602 0.0385122 -0.0421994 0.0694073 -0.0186634 0.0956304 -0.0119574 0.0345948 0.0703201 0.0876697 0.0768201 -0.0292014 -0.111988 -0.0469532 -0.00477342 -0.0287031 -0.0886962 -0.0647747 0.0495768 -0.0286375 -0.0607713 -0.0492375 0.044108 0.0672117 0.028341 -0.0584735 0.0468315 0.073351 -0.0151939 0.0458741 -0.0290836 -0.0579937 0.0565623 0.0137964 -0.0796314 0.0273702 0.0816592 -0.00831269 0.0617283 -0.00392182 0.0089299 0.0935232 0.0789925 0.0510195 -0.0712028 -0.00459918 0.0641163 0.0256088 -0.0389692 -0.0711586 -0.0865824 0.0290732 0.0195997 0.0558038 -0.0501295 0.0237625 -0.0237094 -0.045619 -0.109612 -0.0756226 -0.0501186 -0.0340862 0.0503827 -0.0258708 0.104831 0.0840899 -0.0772563 -0.0468317 -0.00145124 -0.0534534 -0.025986 -0.0141397 0.071757 -0.0489086 -0.0199267 -0.00379524 0.00412661 -0.0860137 0.0196072 0.0156499 -0.0680574 0.0148868
at 0.0880384 -0.08768 -0.113133 0.0710458 -0.0863742 -0.042703 -0.0262232 0.0781599 0.0767603 -0.0816561 0.0360451 -0.0069682 -0.0993942 -0.0118665 -0.0899337 -0.00470822 0.0909976 -0.0911113 0.000102293 -0.0841673 -0.0141364 0.0872672 0.0050294 0.0234363 -0.0501798 0.0858205 -0.0311857 0.0736046 -0.0428858 -0.111269 -0.0288812 0.0840226 0.0730362 0.0273923 -0.0420875 0.0422538 -0.0449113 0.00759981 0.00391417 -0.0301438 -0.0143288 0.0403719 0.0222335 -0.0588375 0.0288965 -0.0612422 -0.00492729 -0.0787261 0.0511744 0.0281038 0.0442366 -0.0858188 0.0342401 0.100492 0.0503175 0.0923462 -0.0499061 -0.0722913 -0.0492034 -0.0301619 0.0582039 -0.0402844 -0.0887966 -0.0230791 -0.0915459 -0.00237857 -0.0508263 -0.0337067 -0.0274278 -0.0261278 -0.062875 -0.0730866 0.0464618 -0.0439845 -0.0735151 0.0519724 0.0131457 0.0586323 0.050969 0.00906416 -0.0719204 -0.00551316 -0.0163341 0.0329049 -0.0309604 0.0496073 0.0282848 0.0608912 0.066485 -0.0144715 0.0443924 0.0936528 -0.000888298 0.0397622 -0.0293249 -0.0166084 -0.0430404 0.0670311 -0.0338058 0.088281
with 0.0699041 0.0733385 0.0678609 0.0411627 -0.0314019 -0.0544932 0.035428 -0.0426143 0.0128574 -0.0870894 0.0531494 -0.0591278 -0.0338727 0.0320918 -0.0635328 -0.000932317 0.0308429 0.0655345 0.0752595 -0.0172574 -0.0124963 -0.0616171 -0.0149448 -0.0424202 0.0455546 0.0165841 0.0102206 0.0308484 0.0755929 -0.0814227 -0.0809398 -0.0607611 0.0152941 0.0687447 -0.0652365 -0.0279969 -0.0862608 -0.0303581 -0.0121595 -0.0197471 0.0149178 -0.0282293 -0.0234612 -0.00941305 -0.0378433 -0.0832244 0.025749 -0.0501104 0.0750524 0.0106833 -0.0718559 0.0727552 -0.00629875 -0.0253643 0.0184016 -0.0720855 -0.0400033 -0.00921617 0.0168202 0.0242531 -0.112809 -0.0793622 0.092473 0.0621624 0.0830553 0.0618243 -0.0530672 -0.000171471 0.0016051 -0.0379885 0.0158041 0.0230848 0.0573373 0.0403739 0.082152 -0.0852437 -0.0271858 0.0571619 0.0635107 -0.0323926 0.0373505 -0.078474 0.0712124 -0.0119744 0.0920709 0.0240288 -0.00300911 -0.0173556 -0.0427627 0.0328565 -0.0718806 -0.000963061 0.0639578 -0.00238923 0.00969559 0.0432065 0.0347553 0.0320676 0.0910251 -0.0782312
up -0.0878067 0.00550452 0.0753728 0.0512346 0.0442959 0.00744734 -0.0883174 -0.0816662 0.0238519 -0.00997243 -0.0597752 0.0798719 0.038541 0.0434693 0.10478 -0.0124183 -0.0191598 -0.0545676 0.00685811 0.0224784 0.0987181 0.0875055 -0.0735786 0.0848691 -0.0529699 -0.087204 -0.101808 -0.0515644 0.075913 0.0509578 -0.0680865 0.0111017 0.0515936 -0.0752183 0.0633464 0.0641981 0.0557098 -0.0823292 -0.00808519 0.0136007 0.0328724 0.0365096 0.0928558 -0.076219 0.0794868 0.0661863 0.0485421 -0.00676865 -0.0374617 0.0505603 -0.0817594 -0.0363792 -0.0991005 0.0729808 -0.104842 -0.0289178 -0.0444726 0.0381098 0.0561958 0.0313594 -0.0750531 -0.0375334 -0.0874661 -0.0747556 -0.0845048 -0.0161177 -0.0159505 0.0915548 -0.0248241 0.0634498 -0.0391827 0.0331462 -0.0848411 -0.0285742 0.0527919 -0.0477583 -0.0775462 0.0821821 -0.106588 0.104759 -0.0965585 -0.0783085 0.0426982 -0.0263215 -0.0911015 0.0610257 0.0355257 -0.0774415 0.0693337 0.00332553 0.0827416 -0.00417452 0.0203582 0.0618331 0.0725636 0.00631853 -0.0827154 -0.00277699 -0.0663682 0.098607
think -0.00472892 -0.0693057 0.0515149 0.0310754 -0.0612562 0.0242817 0.0469614 -0.0748787 0.0191105 0.0607622 0.0482 0.0429512 -0.0633613 -0.0869019 -0.0908749 -5.99598e-05 -0.044644 0.0660099 -0.00563408 0.08907 -0.0678801 0.0415104 0.0321725 0.0766175 0.038998 0.00394665 0.072188 0.00252985 0.0471799 0.0185104 -0.0759222 0.0447997 0.0602791 -0.0262323 -0.0575631 0.0319459 -0.0813275 -0.0252334 0.0609781 -0.013947 -0.0726186 0.0203452 0.0561878 -0.0222114 0.0262886 0.0490696 -0.0673676 0.0389458 -0.0332935 0.0719096 -0.0611645 0.0338511 -0.076765 -0.102136 -0.0761946 -0.0026979 -0.0551761 0.00529271 -0.0996968 0.0177992 0.0566508 0.0397573 -0.0728033 -0.0659174 0.0497181 -0.0468496 0.010557 0.0115618 0.0174949 0.0249153 -0.0888387 0.0866854 0.107097 -0.0800745 -0.072225 -0.0172387 -0.0753089 -0.0497061 -0.0271001 0.0782005 0.0277269 -0.0903441 -0.0846546 -0.024184 0.0260943 0.0334812 0.0766847 -0.0672119 -0.0407117 -0.0770012 -0.0506655 -0.105172 0.080597 0.0466421 -0.0692926 0.0627429 0.0396195 0.0487079 -0.0013482 0.0841969
no -0.0850455 0.0788077 0.0747757 0.0524342 0.04808 -0.0293621 -0.0503165 0.00616952 0.0280038 -0.0719707 -0.0140553 -0.0844707 0.0171253 0.037412 -0.0619943 -0.0480661 0.0525297 0.054397 0.055403 -0.00906443 0.0733052 0.0871108 -0.0604309 0.0861026 -0.0494482 -0.0328667 -0.0335487 -0.00941098 0.0705504 -0.0847407 0.0789065 -0.0407585 -0.0104874 -0.0628335 -0.0276578 0.021818 -0.0429329 0.0605639 -0.0184333 -0.0538447 0.0395817 0.0171623 -0.101663 -0.0581559 -0.0200253 -0.0574633 -0.016804 -0.0467474 -0.0496634 -0.1153 0.0197476 0.0595989 -0.0901195 0.094147 0.0837831 -0.116924 -0.0857471 0.0848558 -0.0336326 -0.0348083 -0.0191076 -0.0756384 -0.0137598 0.0186547 0.0665405 -0.0123139 -0.0145305 -0.0573371 0.0359824 -0.0470412 -0.0544194 0.0785629 -0.0410729 0.0402485 -0.00669122 -0.0439294 -0.0174567 -0.0872378 -0.0729677 -0.0211479 0.0252135 -0.0611412 0.00178916 -0.0152632 0.0799975 -0.0525985 -0.0311687 -0.0173798 0.0482259 -0.0450238 0.0214165 -0.0385105 0.0807447 -0.0237207 0.050642 -0.0644781 -0.0191883 0.0485391 -0.0423298 -0.0730216
on 0.0127791 0.0448142 -0.0436181 0.0677624 -0.08779 0.0552634 -0.0511241 0.0880726 0.027965 0.0463304 -0.0850717 0.0887855 -0.00974327 -0.0225389 0.0845169 -0.0373154 0.0960953 0.00764698 0.0195917 0.080853 -0.023585 0.0255436 0.0174242 0.0564248 0.0599275 -0.0128382 -0.0423495 0.0793691 0.0533227 -0.0537297 0.0927752 0.0144784 0.0179868 0.0268512 0.0509341 0.0402747 -0.0600762 0.0727859 -0.0951923 0.0556341 -0.0728111 -0.0375722 -0.0182026 0.0386962 0.0732457 0.0151963 -0.0567648 0.0475391 0.0475491 0.00930448 -0.055197 0.0107937 -0.0864472 0.0844861 0.0330197 -0.0598138 -0.0806105 0.0683989 0.102472 -0.0175162 0.059645 -0.000357778 -0.0926036 0.0545671 0.0111923 -0.014354 -0.0718226 0.0241007 -0.0305323 -0.0410801 0.0849568 -0.0312894 -0.0632473 0.0448491 -0.0854196 0.0829087 -0.0416502 -0.10034 -0.0635074 0.0266795 -0.0741523 -0.00755039 -0.00269071 0.0881456 -0.023772 -0.0262854 -0.0283427 -0.00988141 -0.030596 -0.0808541 0.0271814 0.0492366 0.0378156 0.0338077 0.0160355 -0.0818588 0.0405537 0.0808396 0.00365984 0.043852
so -0.0536477 0.0339575 0.0649833 0.0257477 0.0459626 -0.0228529 0.00958196 -0.0322325 0.116739 -0.012463 0.066339 0.0661977 0.050361 -0.0825743 -0.00849242 -0.0654508 0.1082 0.0643947 -0.0630142 0.00315413 -0.0883278 -0.0374112 -0.0803535 -0.0997915 -0.0134344 -0.00815357 0.0283847 -0.0124655 0.0358187 0.0653091 -0.0642932 0.0140932 0.0731649 -0.0617368 -0.0643085 -0.0447136 -0.0727995 0.0784694 -0.00378628 0.0717193 0.103498 -0.0610898 -0.0321901 -0.0143318 0.0630338 -0.0788407 -0.0834551 0.0956897 -0.0675746 -0.0479026 0.062485 -0.0430916 0.0520419 -0.0621685 -0.018604 -0.0711259 -0.0563253 -0.0810083 0.0694623 -0.0532518 -0.0941391 0.00422793 -0.0428842 -0.0449248 -0.0718074 0.00307069 -0.0284521 0.0307303 -0.0259885 0.0553584 0.027924 -0.0238781 -0.0417361 0.0913152 0.0305442 0.0662663 0.0255764 0.0159598 0.0754089 -0.00370693 0.0240706 0.0400426 -0.100787 -0.0224276 0.0163324 0.0414689 -0.0482103 0.037751 0.0943801 -0.0334485 0.0292139 -0.0257385 0.0772764 -0.0267767 0.0262579 0.0918717 0.0151544 0.063403 -0.0123638 -0.0809415
there 0.0779551 0.0606825 -0.0649272 0.00312594 -0.0794199 -0.0686008 -0.0862167 -0.0453558 -0.0703331 0.0457375 0.0342543 0.0919699 0.069178 -0.00913964 0.0605349 0.0599365 0.0704795 -0.0183722 -0.0802312 -0.0323167 -0.0329327 0.00897147 -0.0297574 0.0386829 0.0393168 0.0504898 0.0121387 0.0839683 -0.0818299 -0.0132106 -0.0709614 0.0748515 -0.0677424 0.0157667 0.0724434 0.0679308 0.0427688 0.021509 0.0397489 -0.00421874 0.0323875 0.0147079 -0.111054 0.082182 0.0311126 -0.0867354 0.0436464 0.0362913 -0.0751579 0.0645723 -0.0659391 0.00965174 0.0465421 -0.0323741 0.0927626 0.0683941 -0.0382479 0.0801349 0.0413661 -0.0659834 -0.048282 0.0986065 -0.0244754 0.0696247 -0.0798745 0.0492441 -0.0693784 -0.00812279 0.0475945 -0.0454478 0.0287781 0.0729853 -0.0915257 0.0157586 0.129884 0.00569125 0.0132847 -0.0146896 0.082443 -0.0796391 0.0154205 0.00525614 -0.0879669 -0.0343225 0.0558265 0.0932366 -0.0442462 0.0244861 -0.0471798 -0.00987574 -0.0202127 -0.102274 -0.0416469 0.00834964 -0.046292 0.0709879 0.0721913 -0.0223912 0.00301567 0.00486736
all -0.0318614 0.0816186 0.0535919 0.0993429 -0.0333886 -0.0281615 -0.0648301 0.087846 0.0317581 -0.0140945 -0.0558268 -0.0525944 -0.000234538 0.0443357 0.00788083 0.0779757 0.0380804 -0.101172 -0.0657939 0.0223691 0.045801 0.00296155 -0.0918605 -0.0120636 -0.00300534 -0.0209906 -0.0526945 0.00280742 -0.00363963 -0.0309113 -0.080797 0.0834509 0.0420073 -0.0521785 0.065328 -0.0666184 -0.0570601 0.0764885 -0.00716249 -0.0774465 -0.00659918 0.00859501 0.0663916 -0.0295862 0.0604353 0.044012 0.0325979 0.102916 -0.0390907 0.00271374 -0.10853 -0.107215 0.0057491 -0.0610707 -0.0468563 0.0753675 0.0338379 0.0189282 0.103355 0.0805897 0.0170268 0.0512824 -0.0503225 -0.067878 -0.0526817 0.0633435 -0.046067 0.0248826 0.076239 0.0399072 -0.0589306 -0.0567469 -0.0375433 0.0262507 -0.0278278 -0.027015 0.0552343 -0.0475236 0.0215364 -0.0208524 -0.0048091 -0.0117305 -0.0875729 0.00796398 -0.0592673 -0.0738904 0.0912726 -0.0328625 0.0260827 -0.0600975 0.0111034 -0.0347025 0.00214459 -0.0296598 0.038425 -0.0499463 -0.0241692 -0.0415492 0.0450422 0.0221271
little 0.0449668 0.019221 -0.0756824 0.0342986 0.0338722 -0.00529558 -0.0317093 -0.0559919 0.0733402 -0.0714325 0.0719592 0.0627406 0.0402395 0.00757652 0.0435169 0.00403176 -0.0295806 0.0698167 0.0513624 -0.044121 -0.0188298 -0.037987 -0.090462 0.0913853 0.0823271 0.10137 0.0677675 -0.0203365 -0.024571 -0.0381484 -0.0150074 -0.00748987 -0.0373655 -0.0409434 0.0867054 0.0170315 0.0615298 -0.0846259 0.0282843 -0.0183775 -0.0206421 -0.0402884 0.0883248 0.0198638 -0.0825981 -0.0166227 0.0802545 0.0150574 -0.0738658 -0.056581 0.0417791 0.0693899 -0.0565034 -0.0445429 0.0634178 0.0876136 -0.0424711 -0.032359 -0.0578876 0.101879 -0.0576026 -0.0338748 0.0841187 0.07127 0.0343987 0.0153749 0.0846301 0.0783257 0.0766841 -0.0499595 -0.0364957 -0.0371857 0.0928418 -0.0202405 0.00451159 0.0883836 0.0586198 0.0359897 0.0364292 0.0583448 0.00358119 -0.0402433 -0.0173271 -0.0856232 -0.043382 0.0887429 -0.0594607 0.0458199 -0.0400481 0.0352556 -0.0684672 0.0149285 0.0995728 -0.0489007 -0.0373464 -0.0796654 -0.10794 -0.0635112 0.00491175 0.071429
rabbit -0.0310827 -0.0492544 -0.0592224 0.00911784 0.0178301 -0.00990806 0.0330321 0.0397943 -0.0154787 -0.0404564 0.0767259 0.0399577 -0.0427632 0.025302 0.00123597 0.041062 -0.0241018 0.0244071 -0.0418727 0.0841732 -0.0112144 -0.0859117 0.108497 0.00992103 0.0393191 -0.036542 -0.0894941 -0.00042434 0.0824615 -0.105873 0.0673535 -0.018226 -0.00338727 0.0709401 0.0778606 -0.0423881 -0.0519906 -0.0805935 0.10345 0.0959814 0.085218 -0.0829448 0.00626051 -0.0417137 0.0238598 -0.00903002 0.0445359 0.0700588 0.0370621 0.030609 0.0852181 -0.0671332 -0.0780488 -0.0435157 -0.0805636 -0.0321762 0.0385291 0.00704473 -0.102585 0.0263173 -0.0708986 0.0697447 -0.0509531 -0.0439899 -0.0494709 0.0847025 0.0101739 -0.0896361 -0.0809604 -0.00203173 0.0280406 -0.00641357 -0.0623072 -0.0089846 0.0394972 -0.0424054 -0.0711123 0.0446034 0.0677286 -0.00956228 0.11378 -0.00169448 0.0891857 0.0565875 -0.0585904 -0.0776245 -0.0675247 -0.0822602 0.0148964 -0.0666691 0.0400229 0.0328546 -0.0786381 -0.0844787 -0.0661446 0.0110565 -0.0811801 -0.0116539 -0.0813753 0.0421226
be -0.0252168 -0.034943 -0.0912574 -0.0866394 -0.0539286 0.050437 0.0567693 0.071947 0.0640991 0.0293292 -0.0534518 -0.0562646 -0.0768882 -0.0598769 0.0282026 -0.0490841 0.056346 0.0706656 0.0887444 -0.0733892 0.0408704 0.0389694 -0.0351178 -0.0565845 0.0483277 -0.0847952 0.11066 -0.0843777 -0.0836245 0.000586234 0.0352036 0.0329642 -0.0415145 0.0238344 -0.0416943 -0.0103865 -0.0546319 -0.0898602 -0.0351478 0.113839 0.02725 -0.0735648 -0.0637234 -0.0639802 -0.0709357 0.0477357 0.0531786 0.0695696 -0.031093 -0.0239571 -0.00172059 0.0416254 -0.0268282 -0.0810269 -0.00954728 -0.103867 0.0596497 0.0577768 -0.0840045 0.0996913 0.00964069 -0.0613933 0.0839376 -0.0216311 0.0787375 -0.0606005 0.064388 -0.0552074 -0.0867365 0.0148452 -0.0834295 0.0657798 -0.0358924 -0.0827559 0.0631804 -0.0658766 0.03169 -0.0483306 -0.0695286 -0.0342041 0.0220577 0.0784872 -0.0894217 -0.00212086 0.0584751 -0.0425878 -0.0797567 0.0892894 -0.0686159 -0.0727105 0.0663219 -0.0285929 -0.0221109 -0.0233497 -0.00133988 0.00243089 -0.0494725 -0.0151076 0.0116586 -0.0327925
out -0.0118559 0.080039 0.00158178 0.0215103 0.0226068 -0.00151404 -0.0490437 0.0488174 -0.0919649 0.106016 0.0651788 -0.0190073 0.0784818 -0.0298462 0.0598293 -0.0488489 -0.0203165 0.044108 0.0655476 -0.0451585 -0.0371373 0.066605 0.0370757 -0.0578307 -0.00652242 0.00412617 0.0149829 -0.0107605 0.0415857 -0.101091 0.00748952 -0.0480333 0.00931474 0.0340577 0.0825558 0.0519126 -0.0888147 -0.081679 0.0392709 0.0749185 0.0524715 0.0115078 -0.0637228 0.0546415 -0.0256273 0.000211257 0.00188104 0.0281912 -0.0673069 0.0250186 -0.11028 -0.0608985 0.0854128 0.0761549 -0.0651009 0.042812 0.0713737 -0.00428156 0.0386249 -0.0519392 0.0485163 0.0461521 -0.0395741 -0.0893269 0.0437224 -0.107945 -0.0393015 -0.0878741 -0.0653723 0.035629 -0.100589 -0.0669571 0.0925865 0.0840267 0.0634371 0.0370397 -0.0357634 -0.0151595 0.0157165 -0.040254 -0.0259664 -0.102518 -0.0520596 0.0484434 0.0387973 0.0342232 0.0557173 -0.122007 0.0744922 -0.0635846 -0.0582041 0.102521 0.0200268 0.067973 -0.0947372 -0.0436479 -0.0650591 -0.0359742 -0.0283704 0.109081
time -0.062694 -0.0261511 0.00070376 0.00518726 0.0835285 0.0723207 -0.0919711 -0.0470307 0.0528837 -0.07748 0.064791 -0.039406 -0.0248749 -0.031025 0.0246239 -0.0480894 0.0163409 -0.0662327 0.0601036 0.0771383 -0.0095248 -0.0787343 -0.0452608 0.0717739 0.0671889 -0.0675548 0.0961999 0.0388841 -0.0615447 0.0113441 0.0747583 0.0608109 0.0662568 -0.0847496 -0.0709859 -0.0699917 -0.00639882 0.0188916 -0.0379208 0.0420016 0.109625 0.0338905 0.0521879 0.0859432 0.0256732 0.0815933 0.0147836 -0.0772582 -0.0385242 -0.108145 -0.0170918 0.0418979 0.0215067 0.0726646 -0.0327943 0.0364144 0.053799 -0.0384625 0.0466909 -0.0437278 0.0354053 -0.0156084 0.0511736 -0.104171 -0.0310478 -0.0223283 0.0404193 0.0413788 -0.0175438 0.00493844 0.054992 0.0146309 0.0346415 0.031022 0.0190075 -0.04341 -0.0113563 0.068751 0.0168954 -0.0874855 -0.0180849 0.0403595 -0.0270334 0.0749874 0.010395 -0.0355351 -0.049182 -0.0635751 0.0293791 0.0430014 -0.0167112 -0.0401953 -0.0411511 0.111846 -0.0805115 -0.0176735 0.100632 0.0592094 0.0910274 0.0491336
how -0.0474577 0.0860429 -0.00484588 -0.0799938 -0.0429429 -0.0326219 0.0531825 -0.0197892 0.0926981 0.0784126 0.0918404 0.058224 -0.0180728 0.0825045 -0.0614756 0.0590592 0.0530888 0.0941032 0.0793864 -0.073052 0.0839714 -0.00432468 0.073541 -0.0537364 0.0527665 -0.0467326 -0.018844 0.0765325 0.0319433 0.00307706 -0.021539 0.0814678 -0.02423 0.0171682 0.0638423 -0.011317 -0.0285545 0.0924448 0.0938107 -0.01877 -0.0438571 0.069579 0.0833553 0.0388773 0.0691425 0.0944628 -0.083151 0.0850755 0.00702951 -0.0967237 -0.00563669 0.0940191 -0.00952393 0.0219591 -0.0592632 0.0051834 0.0249992 0.0674319 0.0515883 -0.0713474 0.0107276 0.0197657 -0.0570124 -0.0153167 -0.00422544 0.0207567 -0.00473205 0.0242265 0.0740388 0.044077 0.0583818 -0.0809889 0.0578977 -0.0632584 0.0277124 -0.0881486 -0.0361581 0.0944933 -0.0652374 -0.0732874 0.0592588 0.0598125 0.0499701 0.100016 0.0464247 -0.0524575 0.0579413 -0.0687631 -0.0145574 0.0666732 0.0862229 -0.103159 0.0110813 0.0220252 0.00596187 -0.0263112 0.0784373 0.0636971 -0.0351607 -0.0603848
see -0.0750138 0.0276107 0.0508263 0.0381028 0.0119289 0.0850859 0.0723921 -0.0221672 0.0235318 0.0143309 -0.0959443 -0.0941446 -0.0756681 0.0589641 0.0655496 0.0673897 0.0646338 -0.0902029 0.0468393 -0.0703577 0.0102283 0.0492311 -0.0932699 0.02293 0.0199025 -0.0899685 0.112816 -0.0422438 -0.0064871 0.0392774 0.0828577 -0.0790327 0.0630129 -0.0707364 -0.00029732 -0.106746 -0.068977 -0.067034 -0.0481157 -0.0565112 -0.0650431 0.0651148 -0.0116223 -0.0514963 0.0469679 -0.0828334 -0.00936334 0.0676348 0.0280069 -0.0210322 0.0174648 -0.0825821 -0.0878346 0.0879005 0.09782 0.0394768 0.00629132 -0.0721933 0.0537392 -0.0520254 0.0532619 0.0561926 0.031402 0.0563611 -0.0752264 0.0735862 -0.0338142 -0.0709079 -0.0482638 0.0875422 0.0593005 0.0700841 0.082441 -0.0101956 -0.0410502 0.0513037 -0.0509641 0.0916872 -0.0386442 0.112874 0.0380861 0.0369852 0.00358452 -0.0262029 -0.00262627 -0.0623397 -0.0458203 0.0732938 0.0725278 0.0788683 0.0754201 -0.05559 0.0967933 0.0278446 0.00331488 0.0792209 -0.0896972 0.0743165 -0.0999405 0.0417808
by -0.0554912 0.0796667 0.0611474 0.0371471 -0.00621717 0.0104863 0.0603014 -0.0815421 0.0145831 -0.0098421 -0.0440827 0.0454212 -0.0463153 -0.049082 -0.0601624 -0.00919848 -0.0269786 0.0411469 -0.0275401 -0.0314784 -0.0105459 0.0898376 0.097396 -0.0501657 0.0434056 -0.0601252 0.00376082 0.0457742 0.0799234 0.0420286 -0.0429125 0.0788829 0.0671642 0.101097 -0.0820203 -0.000780788 -0.0459101 0.0580115 -0.0343971 0.0440869 -0.00192676 -0.0105891 -0.0270785 -0.0860963 0.04296 0.00927964 0.0482589 -0.0217268 -0.0486096 0.0612493 -0.00755677 -0.0812063 -0.0836582 0.0409429 -0.093813 -0.0451295 -0.0327112 -0.00643183 -0.0256545 0.0236659 -0.0235985 -0.00866227 -0.0713049 0.0585222 -0.0285056 0.0946813 -0.00211826 0.0425103 0.0346592 0.0425215 -0.0141132 -0.0252801 -0.0838906 0.0115987 0.0532422 -0.0640315 0.0687719 -0.0129057 -0.00993774 0.077678 -0.0741469 0.0632592 0.0798479 -0.00289595 -0.0849306 -0.0857686 -0.0131424 0.00696267 -0.0967811 -0.0346451 -0.0352329 0.0555554 -0.0812101 0.0623365 -0.0426862 0.0725838 -0.0411388 -0.0487571 -0.0275743 -0.0939158
do 0.0828413 -0.02916 0.0795595 0.0307632 -0.0845969 -0.077967 0.00770645 -0.0196336 0.0854917 -0.0230264 -0.0590455 -0.0802404 -0.0695682 0.0423015 -0.0565038 -0.080082 -0.0612838 -0.0618379 0.0168951 -0.0418162 -0.0438274 0.00125886 -0.0560879 0.0057475 0.0887441 0.0542032 -0.00965814 0.0287765 0.0612518 -0.0592338 0.0418199 0.0203676 -0.0408205 0.0479441 -0.0734557 -0.0810807 -0.0835954 -0.0845384 -0.0882636 -0.0450037 0.0406556 -0.0356696 -0.0386509 0.0700733 -0.0298736 -0.0700256 -0.0234636 0.0464297 0.0178472 0.0010248 0.00915633 -0.0549238 0.0489601 -0.0608219 -0.00953859 -0.0121715 0.0301612 -0.0164978 0.0839814 -0.0148866 -0.0682801 0.0428241 -0.0739482 0.046133 0.00635203 0.0054405 0.0281418 0.0417085 -0.073698 -0.055062 -0.076895 0.0365274 -0.0197034 -0.00883611 -0.0433465 -0.00801269 0.0600262 -0.0597565 0.0954233 -0.0705873 -0.0657198 0.0665479 -0.0170328 0.0340997 0.030812 -0.0135979 -0.0153344 0.0238537 0.0512275 -0.0946381 -0.0784629 -0.0106929 0.0164511 0.0865362 0.0271907 -0.0189907 -0.0433283 -0.0698235 0.0296087 -0.08703
what -0.0602309 -0.0608239 0.0178613 0.0666498 0.0831735 0.00371162 -0.0723385 -0.0897142 0.0453044 0.0791582 -0.0488535 -0.0300698 0.056975 -0.064636 -0.0940564 -0.0447621 0.00861503 0.0268212 0.00881712 -0.0114633 0.0934365 0.0253125 -0.0309339 0.0384049 0.0761686 -0.0673597 -0.0751102 -0.0657726 0.085548 -0.0472897 -0.0368165 0.042311 -0.022739 0.0686494 0.0364595 -0.0925926 -0.00101546 0.0670052 0.00657873 -0.10291 -0.0443127 0.102539 -0.0129165 0.0884305 -0.0653713 0.0771441 0.0786634 -0.0485991 -0.00265357 0.0654337 0.00708959 0.0719379 0.07203 -0.00494167 -0.0146898 0.0519882 -0.0334542 0.0857273 -0.0133005 0.09221 -0.0425572 -0.0698554 -0.00448001 -0.0202335 -0.0489495 0.047495 -0.0669201 -0.104044 0.0331827 -0.0374555 0.0915985 -0.0783537 0.094768 0.0593737 -0.0325691 -0.0698026 0.0651825 -0.0373404 -0.0122684 -0.0439614 0.0828178 -0.0720186 -0.0144455 0.010054 0.0368014 0.0493486 -0.0477267 0.0426586 -0.0529798 0.0361479 -0.00666541 0.0762489 0.0578867 -0.0131185 -0.0226871 -0.0952427 -0.0250667 -0.0378537 0.0764909 0.0570921
thought -0.0967929 -0.0289703 0.0919648 0.00788767 0.0541582 0.0868189 0.053597 0.0445565 0.0164987 0.0538026 -0.0102053 0.0750233 -0.0429189 -0.0173353 -0.0391181 -0.00203481 -0.0767569 -0.0212011 -0.0578803 -0.022887 0.00781224 0.0219837 0.0852998 0.0811494 -0.037345 -0.0380468 -0.0761742 0.0572965 -0.0888233 0.0915971 0.00269902 0.0528237 0.0438406 0.0204716 0.0623011 -0.0186624 -0.00901301 0.0569287 -0.00757546 -0.096826 0.104819 -0.0155153 -0.0399644 0.103786 -0.00570512 0.02612 0.0793349 0.0913295 -0.0264645 -0.0673195 0.0364182 0.0743324 -0.0481045 0.0570435 0.0816595 -0.0444029 -0.0463817 -0.0343927 0.0547754 -0.103587 -0.0844241 0.0940971 0.054282 0.0218517 0.0987425 0.0455039 -0.0541281 0.0332102 0.0489335 0.0641998 -0.00257853 0.00519137 -0.0832718 0.0853949 -0.00535805 0.0284795 0.0186839 0.0828305 -0.112744 0.057936 -0.0491976 -0.0815594 0.0263998 -0.0459992 -0.0612644 -0.060174 0.0288341 0.00900367 0.0605364 0.0244749 0.0493372 -0.0893625 -0.0368681 0.0294437 -0.077277 0.0648702 0.0216021 -0.0794659 -0.0835729 0.0200801
would -0.0143181 0.0356223 0.0568677 0.00368525 0.056332 -0.0245069 -0.00366027 -0.0640339 -0.0053808 -0.0206212 -0.0407349 -0.0691994 0.059934 -0.0440686 0.0580312 -0.0381055 -0.0166205 -0.0241077 -0.011386 0.0169594 0.0572796 0.00891163 -0.0795887 -0.00653965 0.0773595 0.0617506 -0.044183 -0.00450722 -0.0143963 -0.0518767 -0.0318648 -0.0653608 -0.00175979 -0.0237326 0.0751031 -0.0192507 0.0528337 -0.0902806 0.085771 -0.0187483 -0.0194382 0.0330562 0.0583716 0.0873242 -0.0636103 0.0142815 0.0330477 -0.0562788 -0.034212 -0.0250069 0.0490085 0.0585305 -0.0258982 -0.0857281 -0.0887562 -0.0324864 0.0673682 0.052272 -0.099589 -0.0881286 0.0851855 0.0426809 0.0762668 -0.0310263 -0.0095993 -0.013692 0.0792843 0.0736755 -0.0324797 0.0226465 -0.0666651 -0.0349631 0.0602719 0.0368767 -0.00369167 -0.0165985 0.0727314 0.0702938 -0.0255599 0.082963 -0.0561234 -0.088486 -0.0500734 0.0918983 -0.000169431 0.0207093 0.0539904 0.0569847 -0.0711169 0.0303293 -0.0323538 -0.00845708 -0.0934822 0.0253717 0.0510274 -0.0746205 -0.032537 0.0355076 -0.0293804 0.0324133
like -0.0865664 -0.0920885 0.0174083 -0.0379672 0.0403253 0.0817584 0.0440683 -0.0258454 -0.0813523 -0.110372 0.0565829 0.0588408 0.0840193 0.0712747 0.00587968 0.0405002 0.0535106 0.0976452 0.0738687 0.0122887 -0.00219576 -0.0867719 0.0310727 0.0972498 -0.0312718 0.000978747 0.000943333 0.100218 -0.0403073 -0.010484 -0.0604715 0.0325335 -0.0880605 0.0339849 -0.0362249 0.0416 0.0821369 -0.0338624 -0.0187205 0.03989 0.0328129 -0.0271476 -0.0710482 -0.092431 0.0944824 0.0959218 -0.0807111 0.0624567 -0.0417362 -0.0343305 0.0456219 0.00160235 0.0552576 -0.0310593 0.0349786 -0.000706373 0.076959 0.0242842 -0.05592 0.0246099 -0.0816932 0.0429563 -0.0182601 0.0332999 0.0947922 0.0749487 0.0297832 0.0625436 -0.022204 -0.0279761 -0.0283534 -0.0171093 -0.0429125 0.0613046 -0.0267734 -0.0817753 0.0205892 -0.0308174 0.0025529 0.0910862 0.0294234 -0.0407461 -0.087787 -0.0967829 0.0160515 0.0822551 -0.0935172 0.0787646 -0.114206 -0.064623 0.0820141 0.00233598 -0.0300361 0.0755321 0.0203533 0.0361961 -0.051442 0.0654619 0.0200786 -0.0651754
about -0.0510952 0.0726017 -0.0132278 -0.0898979 0.0545207 -0.0583708 -0.0659635 0.0413525 0.0789872 0.044154 0.095226 0.0232112 0.0526216 -0.078634 0.0665153 -0.0285978 0.00162352 0.021464 0.0843381 -0.0727679 0.059697 -0.0397672 -0.0721154 -0.0126283 0.0341143 -0.0845775 -0.0283258 -0.0477326 0.0384455 -0.0629841 -0.1028 -0.00925613 -0.0790513 0.0478192 0.0738546 -0.0169794 -0.0732457 -0.0594467 0.00645396 0.0320381 -0.0756697 0.019915 -0.0948087 0.0280075 0.05838 -0.0568287 -0.0964775 0.0268769 -0.0496958 -0.0807653 0.0756839 -0.0977774 -0.000517664 -0.0312973 -0.0939595 -0.0175546 -0.0760516 -0.0113286 -0.0535381 -0.0197283 -0.0480314 -0.02202 0.0665828 -0.021062 0.0545581 0.0874835 -0.019665 0.0729993 0.0393266 -0.0635604 -0.0456763 -0.0617017 -0.0850688 -0.0669836 -0.0260244 -0.0762696 -0.0639872 -0.0223083 0.00497932 0.000297345 0.0867353 0.0667578 0.0164022 -0.055244 -0.0154295 -0.0327917 0.113732 -0.0161483 -0.023539 -0.0163877 -0.0674984 -0.0219317 0.00256512 0.0693522 0.0184062 0.043169 0.0721326 0.0866543 -0.073425 0.0120628
were -0.0665361 0.0654202 -0.0764494 -0.10267 0.0414811 -0.104115 0.0596568 0.106862 -0.0634485 -0.0084769 0.0877739 -0.0570644 0.0387836 0.033004 0.023566 -0.0940378 -0.0897722 -0.0294434 -0.0915634 -0.00308232 -0.0302867 0.105268 -0.0432394 0.0214908 -0.0614168 0.0989663 -0.0507462 0.064548 0.00922333 -0.0809318 0.0849448 0.0583588 -0.0573892 0.0614943 0.0539105 -0.000305163 -0.00629004 -0.0140463 0.0145109 -0.0144723 0.00831342 -0.0224271 -0.0234016 -0.0147497 0.0688637 0.0263904 -0.0296718 -0.019437 0.0292541 -0.064682 -0.0358947 0.0781591 -0.0571595 0.0843411 -0.0289694 0.0310796 0.0679005 -0.0534426 0.020588 -0.0563714 -0.0545864 0.109253 -0.102518 -0.0119313 0.0172451 0.0717211 0.0859934 -0.0522578 -0.0689069 0.0698354 0.0410497 0.0714884 0.0610835 -0.0743398 0.0179309 0.0172327 -0.0450606 -0.0960585 -0.0747634 -0.0668022 -0.00621341 0.0589992 0.0184657 -0.00257589 0.00364498 0.0681992 -0.000496534 0.00378984 -0.0191443 -0.0485969 0.0162814 0.0577711 0.0719169 -0.0948528 0.048577 0.0490264 0.022777 0.0770825 -0.000498154 -0.0460387
me 0.0693774 -0.0495904 0.0652956 0.0548524 0.0659574 -0.0885332 0.0694702 0.056884 0.0295715 0.0153116 0.00704541 0.0165072 -0.0838143 0.0127083 -0.0801345 0.0980928 0.086303 -0.0129547 0.0587986 0.046266 -0.0562668 -0.0302595 0.00402691 0.00362082 -0.0782234 -0.0769484 -0.0222512 -0.0218269 0.0612464 -0.00658673 -0.0872809 -0.0762563 -0.0467298 0.0499991 0.0466732 -0.0286992 0.0762993 0.0380827 -0.00925972 -0.0391837 0.0592458 0.0077251 0.0230083 0.0557253 0.0533168 -0.0655813 0.0222102 0.0689918 -0.0801742 0.0961796 0.0453908 -0.0577492 -0.0209108 0.00153462 0.10471 0.00777953 0.0616731 0.0703286 0.0255184 0.0617491 0.0140003 0.0570593 -0.0624082 -0.081123 0.0645462 0.0235607 -0.0326867 0.0617091 0.00265228 0.0605965 -0.0873764 0.052909 0.0784789 -0.0872919 -0.0144126 -0.0297879 0.0292321 0.0390963 -0.0178986 -0.051387 0.0547542 -0.0325396 -0.0423919 0.000258573 0.0680159 -0.0647746 0.0849457 0.00967402 -0.0835123 0.0855463 -0.0152706 0.0803257 -0.0688284 -0.0827024 -0.0779819 -0.00463466 0.0600734 -0.0237515 -0.00747576 0.0128203
if -0.0259173 0.0517086 0.00594117 0.0104197 -0.0680068 -0.04235 -0.063439 -0.046706 -0.05983 -0.0238309 0.0950109 -0.0627785 0.0133761 0.0109829 0.0726824 -0.0360277 0.0935717 -0.0139196 0.0268476 0.051685 -0.0444072 0.0495691 -0.028333 -0.00531663 -0.0436512 0.0163112 -0.0504694 0.0655697 0.0584382 0.0329788 0.0483407 -0.0136848 -0.0610518 -0.0359752 -0.0759363 -0.0756123 -0.0893152 -0.00442665 -0.0358255 -0.0667023 -0.0891044 0.0819338 0.0485243 0.0415271 -0.0111405 0.0737481 -0.00657984 0.0333808 0.0199005 -0.0163504 -0.0678746 0.0808693 -0.0136856 -0.0255325 0.0681769 0.00856967 0.0657058 -0.0281606 -0.0799442 -0.0102267 0.0100378 0.0260371 -0.0439309 0.0215122 -0.0716381 -0.070019 -0.0842685 0.0276143 0.0305722 0.0848238 0.0724833 0.0181315 0.052867 -0.0355072 0.0342503 -0.0188971 0.0500827 -0.0237105 0.00412085 0.0755827 -0.0048778 0.0287378 -0.0429462 0.0868796 -0.0587157 0.0168653 -0.0554729 -0.066924 -0.054004 -0.0429253 -0.0454536 -0.00966025 -0.0679446 0.0439472 0.0343495 -0.0639515 -0.0453755 0.0156481 0.0149556 0.0844171
get 0.00903001 0.0779143 -0.0628998 -0.0545522 -0.0788114 0.0543378 -0.0318112 -0.0962277 -0.00238005 -0.012142 0.0466021 -0.0669772 -0.0272563 -0.0274522 0.0331204 -0.0817765 -0.0223236 0.112612 0.0353954 -0.0269137 0.0259061 -0.0623262 0.00905222 -0.0922045 -0.0412719 -0.0478954 -0.0900931 -0.0541179 -0.0826241 -0.0836634 0.0674193 -0.0981746 0.0581949 0.035818 0.013419 0.0603874 -0.0266089 -0.0153558 -0.0151093 -0.0961395 -0.0885246 -0.0106839 -0.0289186 0.0619699 -0.0207906 -0.00855694 -0.105422 0.089727 0.0184599 0.0142278 0.0447552 0.0706909 -0.059089 0.0341159 -0.103049 -0.0960303 0.0615089 0.012594 0.0788998 0.0714727 -0.0623116 0.103214 0.0617873 -0.0443372 -0.0853262 0.0235492 0.0572969 0.0258162 -0.0630597 -0.0478801 0.0238182 -0.0368137 -0.013377 0.0225595 0.0223898 0.0424783 -0.0559677 0.0374702 -0.0150226 0.059806 -0.0527516 0.00155454 -0.0730077 -0.0289676 0.0898153 -0.0206749 -0.0125467 0.0449166 0.0811989 -0.0960778 0.00850978 -0.0199219 -0.0650052 0.102749 0.0567575 0.0112537 0.0663527 -0.0381558 0.10061 0.0175248
when -0.019637 0.00238323 0.0146727 0.0196856 0.0136147 -0.0591937 -0.0444356 -0.0204961 -0.0238674 -0.0263893 -0.0778581 0.0965535 0.025124 -0.0216477 0.0631693 -0.00853813 -0.0142302 0.0532798 -0.047665 0.0361827 0.0451693 -0.0747931 -0.0356388 0.0342251 -0.0838731 0.0462634 -0.0659224 0.00535812 0.015255 0.0106225 -0.0145228 0.0525939 0.00330745 0.0193336 0.0223011 0.0733217 -0.0401886 0.0810988 0.0316639 -0.0760241 -0.0409838 -0.0335644 0.0454034 -0.0111693 0.0719197 0.0722956 0.0930338 0.102875 0.0927204 0.0720667 0.0279671 -0.0747328 -0.0165711 0.0192524 0.0571945 0.0876879 0.0622663 -0.0747569 -0.0105007 0.0380734 -0.0618412 -0.0746383 -0.0712706 -0.030772 0.0601215 0.00672982 -0.0576447 -0.0121972 0.034156 0.0886642 -0.0124692 0.00431595 0.0628578 0.0334442 0.0362863 -0.00556208 0.00320866 0.0233816 -0.000135458 -0.0437034 -0.0249258 0.080986 0.0207071 -0.0349177 0.0364 -0.0326229 0.00820827 -0.0908054 -0.00468842 -0.0191155 0.0979357 0.0139739 0.00412793 -0.0072895 0.0267241 -0.0797074 -0.0705857 0.090208 0.058909 -0.0909407
way -0.0502824 0.0753865 -0.0493781 0.0842026 -0.0528163 -0.0236036 0.0609086 -0.0746112 -0.00497605 0.0619154 0.114754 0.037952 0.0710503 -0.104998 -0.0300222 -0.00260692 -0.0292375 -0.00450991 0.0637734 -0.0185546 -0.0124848 -0.0332275 -0.0225688 -0.0298148 0.038285 0.0884408 0.034038 0.0377148 0.0331063 -0.0710421 -0.0771403 -0.0229258 0.0725777 -0.0286539 -0.0127398 -0.00598985 0.0359467 -0.0371645 0.0584406 -0.0467101 -0.0474692 0.00936268 -5.82502e-05 0.0546498 0.0294446 -0.0496029 0.0744427 0.0199494 -0.0812381 0.0740112 -0.019072 0.080422 -0.0214669 0.0785302 -0.0550407 0.0906689 -0.0658437 -0.0300921 -0.0256052 -0.00414875 0.0304384 0.0442685 -0.0489251 -0.0207159 0.0298593 -0.0898865 -0.0709187 -0.0873137 0.0599233 -0.0648639 -0.0859127 -0.00676128 0.0880129 0.0715041 0.00380488 0.0202093 -0.0127632 -0.0713698 -0.0524827 0.0670428 -0.00220432 0.0769334 -0.0625135 -0.00540427 -0.0794752 0.0598264 0.0611723 0.0161099 -0.0849881 -0.0340513 0.0311347 0.0227653 0.058663 0.0332819 0.0513682 0.0219176 -0.0374016 0.0179983 0.0575917 -0.0530407
say 0.00457896 0.0728588 0.0888407 -0.0164434 0.0101743 0.037083 -0.0972096 0.057568 0.0960247 0.0244954 0.0605664 -0.0653953 0.0288134 -0.0855947 -0.0877278 0.000568629 0.0474109 -0.062593 -0.0494286 -0.0669656 -0.0445218 -0.0948522 -0.0352042 0.0559164 -0.0221775 -0.0108639 0.0264714 -0.0961381 0.079393 -0.0254165 -0.0395564 0.00218333 0.0694778 -0.0892637 -0.0614714 -0.0826053 -0.0503292 0.0313133 0.0896295 0.0629784 0.085069 0.0893827 -0.0162915 -0.0878389 0.065124 0.0501828 -0.07605 0.0125467 -0.0215067 0.106402 0.000972508 -0.0756305 -0.0748511 -0.0754621 0.0591683 -0.0713667 -0.0132245 -0.0300695 -0.0773455 -0.0857112 0.0693091 0.0350085 0.0327594 0.0618051 0.0256518 -0.0640849 -0.0796313 -0.0585082 -0.0288897 0.0493599 0.0106334 0.0343183 0.0808682 0.0289116 -0.0620087 -0.0876968 -0.0350321 -0.0273905 0.0938277 -0.0316475 -0.082582 -0.0326603 -0.0924134 -0.100599 0.0121801 0.078577 0.0746683 0.0535379 -0.042915 -0.0685204 -0.00754254 -0.0139292 -0.0587538 0.0925962 -0.00439428 0.00801774 0.0315658 -0.0288339 0.0655063 -0.0300058
went -0.0116168 0.0662006 0.0637693 0.0470112 -0.0101521 -0.0051928 0.0149736 -0.0917789 0.0421397 0.0678874 -0.0533419 -0.0851291 -0.00497479 -0.0725342 0.00121362 -0.0992852 -0.0501763 0.0637517 -0.082845 -0.0253291 0.0797712 0.0831225 0.0475878 0.0194682 -0.047474 -0.0625576 -0.0625159 -0.0479259 -0.0669316 -0.0206331 -0.0481387 -0.0663766 -0.0927356 0.0112495 0.0484694 0.00764093 0.022315 -0.0768718 0.0693765 -0.0578119 0.0543177 0.0180782 -0.00729107 -0.0468199 0.00321038 0.0581597 0.0591256 0.0649712 0.0871488 0.0705184 0.0491604 -0.0816969 -0.0475983 0.0721078 0.0467356 -0.0509774 0.0850044 -0.0509175 -0.0414466 0.0297481 -0.0812251 -0.0889766 -0.00564243 0.00223569 -0.0226753 0.0914008 0.060916 0.0638732 -0.0562626 -0.0652217 -0.0710419 0.0592526 -0.0477669 0.08119 0.100831 -0.0893814 0.0316227 0.0128895 0.0499936 -0.0694687 -0.0698193 0.0667006 -0.0583778 0.00700879 -0.00933106 -0.00112885 0.0530962 -0.0119137 -0.0712867 0.0518454 -0.0414899 -0.06676 -0.0376471 -0.0616014 -0.0774064 -0.007704 0.074789 -0.0530558 0.0087352 0.0910215
one -0.0690116 0.0189205 -0.0424833 -0.0563887 -0.02144 -0.035178 -0.0935358 -0.0577452 0.101833 -0.00971133 -0.0240048 0.0236197 -0.0659421 -0.0937686 -0.0508876 0.0277002 -0.0623038 0.0222335 -0.000145289 0.0116622 0.0730732 0.0585385 0.0478016 5.96316e-05 0.00694069 0.0775826 0.0310329 -0.0213507 0.0677317 0.0724343 0.0667475 0.0637045 -0.0341885 -0.0983343 0.0991949 0.0433358 -0.0943717 -0.044439 -0.00871714 0.0396087 -0.0254717 -0.0268156 -0.0511939 -0.054297 -0.00602001 -0.0544824 0.0704326 0.0167881 0.0782622 -0.0835895 -0.074413 -0.097979 0.0640681 -0.0952078 -0.0349606 -0.0149315 -0.0079747 0.085382 0.0757997 0.0913678 -0.00187028 -0.0347228 0.0727204 -0.0336484 -0.0491694 -0.00144604 -0.101034 -0.037319 0.000984843 -0.0670624 0.0930495 0.0630398 0.0532394 -0.0521305 -0.033588 -0.00313666 0.0557616 0.0931869 0.0331279 -0.0686669 0.109211 -0.0838859 -0.00514741 0.0750444 0.0858502 -0.0931471 -0.0137853 0.0564726 -0.0884738 0.0390948 0.0848316 0.067199 0.00933738 -0.0322843 -0.0773768 0.0389237 -0.0321499 -0.00398436 -0.000483002 0.0530414
alice’s 0.101806 0.0293596 -0.0760302 0.0864317 -0.0722282 -0.107202 0.0307091 0.0108385 -0.0712115 -0.0860598 -0.0179337 -0.00552162 0.0459411 -0.00224424 -0.00348919 -0.0938377 -0.00897954 -0.082186 0.0811637 -0.00989761 0.0174056 -0.0631973 -0.0124972 -0.0671632 -0.0514149 0.032551 -0.00185272 0.0201885 -0.0983026 -0.0451858 -0.0971475 0.0229961 0.0244866 -0.037325 -0.106002 -0.0561343 0.0847823 -0.0206888 -0.00170659 -0.0618034 0.108797 0.0332069 -0.0507874 0.052122 0.0587694 0.0858233 0.0133349 0.044395 0.0380068 0.0370011 0.0503327 -0.0644553 0.035635 0.0107582 -0.100708 -0.0486153 -0.0852151 -0.0270844 -0.0695833 0.0542664 -0.100729 -0.0526909 0.048405 -0.0831989 0.00318288 0.0691994 -0.108314 0.00269306 -0.0270342 -0.0951791 -0.00030597 -0.078734 0.0482753 0.105089 -0.00143546 0.0438926 0.0540221 -0.00730475 0.0145746 -0.0279807 -0.0658926 0.0205175 0.0249537 0.0108218 -0.0614467 -0.0418728 0.0459692 0.114214 0.021345 0.0154126 0.070997 0.0723197 -0.0180919 -0.0759353 0.104761 -0.082517 -0.0615639 -0.0338032 0.0208948 -0.0268688
is -0.0842289 0.105505 -0.0357297 0.0932535 -0.074226 0.019451 -0.0619137 0.0368037 -0.05625 0.0277612 0.0887452 -0.0357015 -0.0367054 -0.0274885 0.0163334 0.0711139 -0.0303106 0.00128266 0.0566292 -0.0372352 0.0239888 -0.00471122 0.0885366 -0.0165939 0.0796183 -0.0335777 0.0530113 -0.0300941 0.0881068 -0.0450932 -0.0199299 -0.00168469 0.103751 -0.0941716 -0.089449 -0.0242854 -0.0487301 -0.012546 -0.0682268 -0.0897896 0.0362629 -0.0585829 0.0273711 0.0182832 -0.0451035 0.047016 0.014354 -0.00580373 0.0309808 -0.0440623 -0.00853689 -0.0147201 0.0448998 0.0716859 0.0897611 0.0656276 0.0814269 0.0342101 0.0434458 0.0626605 -0.0685342 0.0139148 -0.040644 0.0441418 0.0543982 0.110631 -0.0533754 -0.0731655 0.10036 -0.0678158 0.0491126 -0.0363871 0.0434733 -0.086173 -0.0867769 0.0109611 0.0580414 0.0489657 -0.0165542 -0.0779928 0.0751339 0.00231983 -0.0858652 -0.109151 -0.0565642 -0.0119758 0.0634453 0.0920456 0.0581772 -0.0768938 0.0107233 0.0705073 -0.00111078 0.037638 0.0440198 -0.0487521 -0.0187873 -0.0610774 -0.00740432 -0.0806504
use 0.03035 0.0320256 -0.0110407 0.0851402 -0.0115906 0.0870754 0.0785479 -0.0971149 0.0772674 0.0601352 0.076242 -0.0454894 0.0637169 -0.083329 0.0437968 0.0850417 -0.0232639 -0.0934953 -0.026572 -0.0503017 -0.0769447 -0.056897 0.0239153 0.0452663 -0.0321796 -0.038317 -0.0505395 0.0212764 0.0776541 0.0773738 -0.0300121 0.0787806 -0.0156287 0.0440443 0.0186206 0.00603282 -0.030617 -0.0638617 -0.0800926 -0.0254499 -0.104378 0.0212386 -0.0696092 -0.0909228 -0.0142024 -0.0691287 -0.0717105 0.0354103 -0.0656898 0.0455456 0.052233 -0.0527917 0.0197918 -0.0641476 0.0365255 0.0404869 -0.00686028 -0.0440983 0.0189142 0.0282482 -0.0266405 0.0308599 0.0183164 0.0704611 -0.0479619 0.0209819 0.0473439 -0.0836176 0.0393601 0.0881093 0.00955065 -0.0195349 -0.0639707 0.0739526 -0.0177802 -0.0727988 0.0617289 -0.0815541 -0.0918873 -0.0754464 -0.0657171 -0.0825752 -0.0430081 0.0003634 -0.0617363 -0.0832222 0.05354 0.0287796 0.0842918 -0.00310055 -0.0645038 0.0929738 -0.0299035 -0.0951668 -0.0567672 0.0137632 -0.0879073 -0.0265934 -0.0138292 0.0345601
nothing -0.0568298 0.0993931 -0.00288912 -0.0316635 0.00649031 0.0813526 -0.0891498 -0.0724674 0.0437202 -0.0516789 -0.0689368 -0.0583635 0.0958733 0.020085 0.0655207 0.0500412 0.0712926 0.0169729 0.0662639 0.0925308 0.0295975 -0.0576288 -0.0769888 -0.0374593 -0.0754469 0.0296129 0.0652189 0.00972742 0.0472956 0.0367763 0.0134428 0.0681906 -0.0613251 -0.0525746 0.0502626 -0.0267823 0.002203 -0.0124362 0.053052 0.0394223 -0.0508595 -0.0666412 -0.0648619 -0.0206277 0.0439739 -0.0641408 0.0492456 0.00681715 -0.0538173 0.0306355 0.0402305 0.0422052 -0.0339614 0.019388 0.0173111 -0.0697575 -0.0200566 0.00767355 0.0130727 0.0578709 0.0485874 0.017711 -0.0904886 -0.0261472 -0.0887319 0.0531824 -0.068307 -0.00680655 0.0158192 -0.0822899 0.0552404 -0.0370133 -0.052812 0.0489009 -0.0664117 0.0954805 0.0347096 -0.0545171 -0.0532258 -0.0194622 -0.0252731 -0.0217196 0.0359206 -0.0924006 0.0379523 0.0082427 0.06724 -0.0256512 0.0190276 0.0791415 0.0800699 0.0603321 0.00173546 0.0103831 -0.0200412 0.0716009 0.0581932 0.0413006 -0.0861817 0.0393286
into -0.0581125 -0.0778067 -0.0276293 -0.0638815 -0.0286466 -0.059776 0.0292779 0.0709556 0.0452369 -0.0514083 0.0143664 -0.0224832 0.105139 -0.0734733 -0.00927666 0.0965355 0.0114864 -0.0132694 -0.0511369 -0.00871127 -0.0253474 0.00374573 0.0697986 0.0854376 -0.0584817 0.0863291 -0.0361819 0.0219444 0.0261338 -0.0992798 0.0620378 -0.0698095 0.040081 -0.0912277 0.0674412 0.0643408 0.00767024 -0.0903172 -0.0137464 0.0390438 0.0862343 -0.0171744 0.0885991 0.0601761 -0.0866874 0.0900536 0.0524943 -0.0611583 -0.111665 -0.0353589 -0.0188232 -0.0999255 0.0391479 0.07728 0.0837228 0.0634404 -0.0418139 -0.072679 0.0922631 0.0239058 0.0714111 -0.0772492 0.0367758 -0.0423965 0.00111509 0.00340835 -0.0105732 -0.0272449 0.0805484 -0.0435916 0.0748419 -0.0607867 0.0133136 0.0195454 -0.0808099 0.0321866 0.0724119 0.0953222 0.0520366 -0.0828765 -0.0532998 0.0505848 -0.0443857 0.05525 -0.0664814 0.0369252 -0.0828578 0.0114795 -0.0592145 -0.0366688 -0.0484886 -0.0805025 0.102145 -0.0463053 -0.0319038 -0.0571171 0.0374871 -0.0785532 0.0752322 -0.000785356
could 0.0455742 0.023332 -0.0674355 0.0621795 -0.0227961 0.0762768 -0.092772 0.0814811 -0.0454962 0.0358893 0.0598255 -0.0912148 0.0198756 -0.000302095 -0.0326104 -0.0369482 0.0399076 -0.0307878 0.0599137 0.0507548 0.0227027 -0.0315788 -0.0222685 0.0723489 0.0875157 -0.0149497 0.0096397 -0.0286257 -0.0097467 0.0488106 0.0676284 0.0545264 0.0300747 -0.0192551 0.0255188 0.033655 0.0839642 0.0236837 -0.0682986 0.0599086 -0.0321863 -0.00646344 0.0826554 0.108288 0.0211835 0.0385792 -0.053211 -4.11633e-05 -0.066307 0.0558119 0.0110573 0.0141527 -0.0343741 -0.00916867 0.0713901 0.0260113 -0.0535729 -0.028108 0.0671148 -0.0206779 -0.0491204 0.0629198 -0.0776062 -0.0602523 -0.00432054 -0.0569847 -0.0216962 0.0854466 0.0855225 -0.00630888 0.06179 0.0911764 0.086788 0.0012639 -0.0352557 -0.0914424 -0.046941 0.0311816 0.00972658 0.0725092 0.0701444 0.0648535 -0.0472593 -0.0033681 0.0996758 -0.0313997 -0.0883871 -0.0160176 0.0839798 0.064746 0.071565 -0.0400994 0.00465848 0.0732829 -0.050889 0.00382449 -0.0337579 0.00801298 -0.0735367 0.0925762
suddenly 0.0800137 0.0308676 0.0849737 -0.0365441 -0.0937188 -0.0277993 -0.0423482 0.035716 -0.0784449 -0.0124595 -0.0345502 0.0530786 0.0716929 -0.0973215 -0.0650754 -0.0804571 -0.0626128 -0.0267931 0.0621973 -0.00628968 0.0657764 -0.0302069 -0.0999711 0.0882044 -0.0294159 -0.0191207 0.0143818 -0.0682473 -0.0772397 0.0920575 -0.0699624 0.0337992 -0.0373326 -0.0349762 0.0598313 -0.088087 -0.0675544 -0.0991989 0.0767095 -0.0746736 -0.0881597 0.0684709 -0.0583142 0.0778228 -0.0425462 -0.0180874 0.0805448 -0.0131631 -0.085343 -0.058411 0.0839655 0.017512 -0.0782202 0.0658272 -0.0956018 0.0251535 -0.00170783 0.076467 -0.0435532 0.0454651 -0.077726 -0.0713977 -0.0789989 0.0100579 -0.0166294 0.0587092 0.0208452 -0.0823094 0.0445419 -0.0366282 -0.0191589 -0.0764138 -0.0837749 -0.076436 -0.0586025 -0.0735005 -0.0318762 -0.0615345 -0.00206718 -0.0567237 0.0929701 0.0514495 -0.0348374 0.0917773 0.00671043 0.0891133 0.031933 -0.0475854 0.0949416 -0.0246797 7.50503e-05 0.0162141 -0.0858655 0.069696 -0.0512615 -0.0346466 0.0529417 -0.0434512 -0.0685723 0.0834978
much -0.0350356 -0.041428 -0.0855413 0.0484213 -0.0322688 0.0592179 0.0487598 0.0252591 0.0846456 0.0211142 -0.0151846 0.0746269 0.0894182 -0.0143433 0.0776594 -0.00255956 -0.014974 -0.0843685 -0.000285516 0.088958 0.0682088 0.0272758 -0.0239408 0.0854081 0.0267721 -0.0683389 -0.0073423 -0.0321995 -0.0942801 0.0011867 0.0717205 -0.0528719 0.000910077 -0.067251 0.0920086 0.0613167 -0.0739462 0.0312516 -0.0249217 -0.0683193 -0.0464616 0.0399119 -0.00929615 -0.10957 -0.0627421 0.100044 -0.0580117 -0.0457611 -0.0389688 0.0456771 -0.00555821 0.0702633 -0.0793567 0.068864 -0.0360886 -0.00431179 -0.0183698 -0.0458451 0.0742916 0.0381769 0.0163996 0.0369449 0.0474756 0.080454 -0.0151115 -0.0045466 -0.0896019 0.0926461 -0.026948 0.0972542 -0.0167746 -0.0419787 0.0564824 -0.0116869 0.0949325 -0.0921148 0.0219988 -0.0906678 0.0571537 0.0217315 -0.0141611 0.0412141 0.00740174 -0.104202 0.0343593 0.0897521 0.0262119 -0.0230242 -0.0841771 -0.0210875 -0.034213 0.065526 0.0820991 -0.0594384 -0.0708519 -0.0205376 0.0293981 -0.0581808 0.0990956 0.0513998
shall 0.0592584 0.0449806 0.0198289 0.0877684 0.0352972 0.0368655 0.0534231 0.0741906 0.0229925 0.0949378 -0.0509447 0.0510126 -0.0676445 0.0398233 -0.0395575 -0.0400975 0.0980552 -0.0538135 -0.0747337 0.0909602 -0.0875984 -0.0122422 -0.0242578 0.00468802 0.061031 -0.0445348 0.0809599 0.0144514 0.00393154 -0.0548709 -0.0579252 -0.0273576 -0.0902584 -0.0198457 -0.0598486 -0.0338452 0.0411485 0.0134001 -0.0597626 0.0682957 0.0728365 -0.0695261 -0.00792324 0.0913006 -0.0155118 0.0544483 0.0589572 0.0536408 -0.0907652 -0.0533446 0.0211012 0.0239153 0.0750786 0.0547223 0.0849673 0.065977 0.0237449 0.0714116 -0.103085 0.0591434 -0.0241134 0.0823573 -0.046118 -0.0702082 0.0622301 0.0648203 -0.022235 0.0107879 -0.049394 -0.0465137 0.0365663 0.0338499 0.0937788 0.0243984 0.00356969 0.0430384 0.0356233 0.110514 0.0335062 0.0735977 -0.00385083 -0.0726215 -0.0822299 0.0955337 0.0873949 -0.0287966 0.0585537 -0.0825335 -0.025832 0.019516 0.0225563 -0.0453307 0.0378932 -0.0367396 -0.0917588 -0.0595775 -0.0748035 -0.0871827 -0.0215454 0.0511712
never 0.0147194 0.00808497 0.0154593 -0.056006 0.0571046 -0.0419562 -0.094656 -0.00419937 0.0117876 -0.0621542 -0.0703226 -0.0204871 0.0388377 0.0613313 0.0369051 0.0886092 -0.0551283 -0.00579263 -0.0035407 0.0312084 -0.0694662 0.0640316 0.0695378 -0.00413614 -0.0294331 -0.0181737 0.0377661 -0.0832563 0.0646016 0.0660983 0.109935 -0.0388131 -0.044308 -0.0591381 -0.0771726 0.0196209 0.0880994 -0.0841628 -0.0377074 0.0376455 -0.0192097 0.0365547 0.0878842 -0.0402639 0.0117994 0.0306466 0.0172777 0.0779685 0.0139035 0.0351375 -0.0567707 0.0294068 0.0345708 0.036253 -0.0885987 0.0491558 0.0652056 0.0584819 0.0715471 -0.0821197 0.0661565 0.0661973 -0.0382414 -0.0347267 -0.0905347 -0.029975 -0.0114651 -0.0461783 -0.061168 0.0315386 -0.0386009 0.0470726 -0.0424706 0.0651538 -0.00478177 0.00944717 0.0215748 0.0232294 -0.0517836 -0.00155091 0.0378454 -0.016635 -0.0552477 -0.0324655 0.0245503 0.0249905 0.0446913 0.0512181 -0.0432715 0.0536198 0.00579084 -0.0542846 0.0536873 -0.0499577 0.0258407 0.0317302 -0.0324845 0.0229122 0.0825701 0.0718997
before -0.0201788 -0.0392271 0.056503 0.0941463 0.00257356 -0.0448105 0.0610314 -0.0419214 -0.0997632 -0.00245232 0.0417119 0.0963493 -0.0217419 0.0603163 -0.0655063 -0.0667496 -0.0976439 0.0911242 -0.0711892 -0.0296973 0.0606945 0.0666065 -0.0315313 -0.0612901 0.0317225 -0.000440575 0.0961087 -0.072284 0.0302855 -0.0189176 -0.00190446 0.0610077 0.0557275 0.0598697 0.0412089 0.0172641 0.0597758 -0.0766147 -0.0632746 -0.0828915 0.0859175 -0.0325753 0.00744881 -0.0161329 -0.0738738 -0.0348232 0.0185702 -0.0453529 0.0995892 -0.0550185 0.0223682 -0.0304422 0.0223151 0.0645353 -0.0227179 -0.00490098 -0.0499223 -0.0786594 -0.0191585 -0.0134354 0.103503 -0.0276217 -0.0707614 -0.0627353 0.0562726 0.0852424 0.0720263 0.0870804 -0.0315704 -0.0360328 0.0393545 -0.0587737 0.000156763 0.062629 -0.0742865 0.0126601 0.0268281 0.0606772 0.0343745 0.035921 -0.0747682 -0.0271677 -0.0344933 0.0169105 0.028533 -0.0700741 0.0187923 0.0305316 -0.100091 -0.0753062 -0.0545951 -0.0780406 0.026126 0.035747 0.0880868 0.0427802 0.0892573 -0.0476326 -0.0462857 -0.0840271
either -0.0616495 -0.0313666 0.0539116 0.0127884 -0.0845981 -0.0884392 -0.0826402 -0.024819 -0.057121 0.0410093 0.0950609 0.113911 -0.0555796 0.0859597 0.00239135 0.0649844 -0.0262378 -0.0684736 0.0822716 0.0224966 0.0399447 -0.000473657 -0.0567467 -0.0266991 0.0420899 0.0907493 -0.082206 0.015189 -0.0504656 -0.0699985 0.0742077 0.0358256 0.0201937 0.0335622 -0.0328597 -0.0663695 0.0772347 -0.0641981 -0.0396424 -0.0528611 0.0151829 -0.0270396 -0.0563748 -0.0858856 0.0688861 0.0824171 0.0962254 0.0457963 0.0645095 0.0557379 0.052519 0.094758 0.0122559 -0.0243716 0.0318801 -0.00920009 0.0615806 -0.0471953 -0.0154188 -0.025395 0.0582823 -0.0479516 -0.0740799 -0.0748365 0.0498929 0.0971962 -0.0553351 -0.0612618 0.0159598 0.0570162 0.050367 -0.0493531 0.0605273 -0.0127198 0.0214488 0.00829733 -0.00214321 -0.0145805 0.0677181 -0.0792504 -0.037247 0.0563303 0.0791342 0.0807448 0.0549893 -0.0771405 0.00904482 -0.0679411 -0.0553502 -0.0402932 -0.0069172 0.0575124 -0.0500348 -0.0765998 -0.0472327 -0.01067 0.0467825 0.0787617 -0.081102 -0.0188805
herself 0.065246 -0.0336058 0.0864536 0.0224486 0.0428137 0.0506472 -0.0496831 -0.0100608 -0.070239 0.0359913 -0.0117022 -0.0348213 0.100002 -0.0194202 0.00615823 0.074485 -0.0488424 0.0875808 0.0771019 0.0412372 0.0143533 -0.0971447 0.0840748 -0.0222209 -0.0732324 0.0569591 -0.0332534 -0.0676309 -0.0883379 -0.0435703 -0.0364719 0.0620627 -0.0560672 0.0630292 -0.0320969 0.0561432 0.0359415 0.0185205 -0.0924989 0.0358366 0.0274708 -0.0877516 -0.030851 -0.0012875 0.0138512 -0.00839441 0.0570711 -0.0476065 -0.0719171 -0.0861771 0.074005 0.00608551 -0.099205 -0.0415655 -0.0302058 -0.0325228 0.0808935 0.00555101 -0.075882 -0.0645588 -0.0456888 0.026343 0.0813976 -0.0828172 0.0509919 0.0350432 -0.0180042 0.0523128 0.0838876 0.0820648 0.0505573 -0.0578091 0.0910225 0.019439 0.000454662 -0.0271379 0.096382 -0.0161025 0.0959344 0.0661663 -0.0713423 -0.0664374 -0.0325273 0.0578692 0.0397924 -0.00627395 -0.0560948 0.0407047 0.063385 -0.0827185 -0.0324734 -0.051769 -0.0587382 0.0482691 -0.055838 0.0844096 -0.0457526 -0.0188041 0.0449078 -0.0525538
wonder -0.0696824 0.0814103 -0.0542947 0.0126504 0.0891198 0.00227373 0.0705301 0.0230003 -0.0185758 0.0715142 0.0653662 -0.0726252 -0.0581373 0.0639784 0.0162292 -0.0831663 -0.0523841 0.0206577 0.0669215 0.0276647 0.018845 0.0487751 -0.0315622 -0.0938775 -0.0650705 0.0441079 0.108574 0.0136342 -0.0302561 -0.0670233 0.038354 -0.0695673 -0.0794379 -0.00796004 0.0649502 -0.0862688 0.0163429 -0.0229431 0.0881935 0.0865384 -0.0613106 0.0150271 0.0678729 -0.0772097 -0.028159 0.00464106 -0.0811372 -0.0727776 0.0016059 -0.0858832 -0.0286149 0.0017778 0.0740761 0.0404017 0.0683555 -0.0166077 -0.0900374 0.00623448 0.0193515 0.0778959 0.0758856 0.0919933 -0.0459234 0.0624629 -0.0577594 -0.0790385 -0.0942731 -0.0398175 0.0231141 0.0675817 -0.0828223 0.0138665 -0.0193755 0.0344314 -0.0207215 -0.0361581 0.052535 0.00697818 -0.00944923 -0.0547659 -0.0138151 0.0725868 -0.0578993 0.0857879 -0.0833472 0.0486328 -0.0854972 0.05299 0.0748301 -0.0655208 -0.0833259 0.0711543 -0.0438972 0.106103 3.01779e-05 0.0437972 -0.07819 -0.00857872 0.0545901 0.0288723
‘i 0.0062125 -0.017635 0.0875093 0.0858811 -0.0615198 0.050724 0.0839373 -0.0911813 0.0553388 0.0342806 -0.0334092 -0.0894342 0.0660425 0.0862646 0.0850092 -0.00709725 0.04515 0.0697888 -0.0563655 0.0550562 -0.0349842 0.0535005 0.0906762 -0.0427342 0.00419797 0.0517762 0.0402244 0.058485 0.0720221 0.0656917 0.0657011 0.0346778 0.0722693 0.00052588 -0.000556354 -0.0969318 0.0623723 -0.0411041 0.043899 -0.0361006 -0.00881277 0.00287069 0.0397884 0.0240782 0.0441267 0.0758788 0.0587271 0.0763476 -0.0637031 0.0112078 -0.0467309 0.080643 0.0799404 -0.0160154 0.0675772 -0.0562154 -0.00757372 -0.0448206 -0.100031 -0.0762174 -0.0384598 0.0299907 0.102313 0.0926464 -0.0678422 -0.0892597 -0.0400039 -0.0635073 -0.0416405 -0.0134184 -0.0251129 0.0659016 0.0652196 0.0225625 0.0215002 0.0819346 0.0043456 -0.0742645 0.0280443 0.0864877 -0.0296186 0.0700037 0.0598576 0.0838538 0.0294793 0.035677 0.0611591 0.0768757 -0.0491675 0.086403 0.0422283 -0.0936048 0.0062736 0.0187371 -0.00218006 -0.101863 -0.0623814 -0.0199248 -0.0474068 0.0242672
through 0.0694781 0.0836257 0.0440588 -0.0684547 0.0373181 -0.0421215 -0.0800074 0.0613453 0.0438383 -0.0538575 -0.0713513 0.0630627 -0.054295 0.00618781 0.0510598 0.0872364 0.0550465 0.0721104 0.0681262 -0.0229683 -0.0403343 0.00681969 -0.00202369 -0.0770838 -0.00315367 0.0841196 0.0507568 0.0683997 0.0771736 -0.00767171 -0.0335732 -0.0487865 0.0719636 0.0377275 0.0156885 0.0613199 -0.00325262 0.0163126 -0.0469817 -0.030113 -0.0142079 -0.0348014 0.0314519 -0.0042824 -0.112926 0.0906628 0.00322695 0.0623922 0.0387694 0.0664577 -0.0961905 -0.0356779 -0.0228672 0.0112836 0.0700676 0.103425 0.0371197 -0.0103252 -0.0887311 0.0709359 0.102658 0.0507335 -0.0182735 -0.0340521 -0.070992 0.0683164 -0.0286916 -0.0418307 0.0843721 0.0627553 0.0620212 0.0539238 -0.0690789 0.0140826 -0.0253268 0.0166014 0.0727138 0.0295405 0.00625697 0.00614012 -0.0722048 0.0712127 -0.0730975 -0.104468 0.0111419 -0.0618778 0.032557 -0.0864134 -0.052932 -0.0480216 -0.0407392 -0.0482399 -0.0215609 0.0072955 -0.0246412 0.0471333 -0.0982567 -0.0409206 0.0276028 0.0841582
eat -0.00498369 0.0353937 0.0951793 0.00349786 0.0828957 -0.00631639 0.0585299 0.0573075 -0.0096295 0.0927175 -0.0715911 0.00809675 0.0753487 0.0438369 -0.105307 -0.0774985 -0.0512053 0.0101621 -0.0216256 0.057333 0.00922154 0.00433306 0.0370133 -0.107508 -0.0700884 0.0380908 0.0748609 0.0656145 0.0933259 -0.0259525 -0.0517561 0.060455 -0.0385242 0.082436 -0.00725956 -0.0273128 -0.085497 -0.108805 -0.00421582 -0.110751 0.0542899 0.0533219 0.111044 -0.0616254 0.0168168 -0.0101325 0.0374802 -0.0503752 0.0562616 -0.00511964 0.0335326 0.0179984 -0.0212086 -0.0645022 0.0132022 -0.0852717 0.0910341 -0.0950947 -0.0332055 0.0515351 -0.0259085 0.0552199 0.0210402 0.0149424 0.0190671 0.103997 -0.0254568 0.00519711 -0.00246803 -0.0148231 -0.0829897 0.0638468 -0.0706416 0.0509443 0.0914522 0.0146201 -0.0340788 -0.0845314 -0.0693383 0.0564207 0.0820176 0.022159 -0.0390861 -0.0559779 0.0966461 -0.0657512 0.0688049 0.00108915 -0.00216154 0.0462521 0.0380111 0.0866898 -0.0404326 0.112417 -0.0153953 -0.0036919 0.0528299 0.0933828 0.0194646 -0.0410265
door 0.0403979 0.0455374 0.0450751 0.0522841 -0.101905 -0.0696938 0.0735137 0.0226538 0.0477325 0.0378102 -0.0231524 -0.00706728 0.0591309 -0.0285244 -0.0293224 0.0465377 0.0552938 -0.00626007 -0.0403901 0.0104838 -0.0572633 0.0676249 -0.0642511 0.0734785 0.022741 -0.00248298 -0.016991 0.0249055 -0.0714749 0.00869146 0.0562208 0.0738808 0.0884505 0.0405104 -0.0370413 -0.0179039 -0.0552277 -0.0579115 -0.0880808 -0.0590163 0.0457457 -0.0822143 0.00818929 -0.0372894 -0.0470018 0.0257352 -0.018461 -0.0463447 0.0581143 0.0292874 -0.0164996 0.0107361 -0.0130441 0.0382663 0.0770297 -0.00452718 -0.00907551 0.0193563 -0.0660017 0.0578759 -0.072019 -0.0719581 0.0207833 0.0110964 0.0528686 0.0879809 0.0263907 -0.0545737 0.00120595 0.0497401 -0.0226861 0.0640763 -0.0832273 0.0684085 0.0653233 0.0271681 0.0363212 -0.0812016 0.0632735 -0.0990199 0.0532501 0.0282246 0.0295137 -0.0955423 0.0568959 0.0784568 -0.0305093 0.0564016 -0.0925085 -0.0890871 -0.0739935 0.024942 -0.0391079 0.037877 0.020877 -0.0335713 -0.0194334 0.0892697 0.0352631 -0.0042925
adventures 0.0824688 -0.00354875 0.0140804 -0.0804172 -0.0857267 -0.105488 0.0442126 -0.108281 -0.0651406 -0.00714563 -0.0611682 -0.00251711 0.0552318 -0.043747 -0.0646071 0.0877058 -0.106478 0.00339188 -0.0534315 0.0485206 -0.070972 -0.0769473 0.0867722 0.0453505 -0.0447199 -0.0515184 -0.0955532 0.0873097 -0.00824784 0.00531231 0.00268789 -0.0112343 -0.0343022 0.0354648 -0.00400693 -0.0263885 -0.0489506 -0.0471985 0.00444726 0.0402281 0.0458576 0.0495185 -0.00819947 -0.0408443 0.0127783 0.0665463 -0.0226024 0.0253361 0.0200019 0.0363148 0.00769362 -0.0666097 0.0669839 0.089338 -0.0880579 0.0470123 -0.00340405 -0.106426 -0.0589011 0.0817247 -0.0567472 0.0284991 0.080758 0.0405341 -0.0905905 0.0307042 0.0971358 0.018703 0.0302187 0.0979245 0.0598557 -0.0468998 0.0278662 0.0153727 0.042016 0.0707378 0.0681222 -0.0380434 0.0575634 0.0280829 -0.0981308 -0.016562 0.0123928 0.0326833 0.0497754 0.0572332 0.00804828 -0.069101 -0.0612681 -0.0782609 -0.060032 -0.0130654 -0.038647 -0.0406525 0.0503612 0.0334288 -0.0798568 -0.0626185 0.0713243 -0.0365298
wonderland 0.106954 -0.0655932 0.0472356 0.0766437 -0.0962928 -0.0551808 0.0822457 0.0601183 -0.0881481 -0.0499919 -0.0513306 -0.0764782 0.07033 0.0563239 -0.0880229 -0.0539145 -0.00321548 -0.00431684 0.104318 -0.0493164 -0.0241416 0.0513111 -0.064293 0.0127958 -0.0547899 -0.0723541 -0.0692158 0.0393213 -0.0013508 0.0192793 0.0686725 -0.0593206 0.0966389 0.0280352 0.00912233 0.0406549 -0.0462855 0.0612709 -0.0751978 -0.0614372 0.0198395 -0.0341916 0.0219678 -0.0241842 0.0445913 0.0753869 -0.0474504 -0.0925775 -0.0458775 -0.0476467 0.0811063 -0.095249 -0.0153279 0.0805726 -0.0868656 0.0318148 0.0799782 -0.0778202 -0.0872669 0.0673467 0.010483 0.063175 -0.0014586 -0.0363285 0.0097757 -0.00785603 -0.0624946 0.0347854 -0.0403293 -0.0260158 0.0144325 0.0987599 0.0751492 -0.022753 0.0660754 0.0503465 -0.0759651 0.0764137 0.0515415 -0.00778363 -0.0255962 -0.0631154 -0.00831276 0.0685257 0.0262048 -0.057111 0.0427987 0.0955463 -0.0461906 -0.107676 -0.0692435 0.0577705 -0.0891044 0.0148768 0.0432244 -0.0311245 0.062205 -0.0726726 -0.0731768 -0.0452633
ebook 0.0278938 -0.0580417 -0.0707696 0.0499421 -0.0244658 0.0200616 -0.0738726 0.00723028 -0.0170739 0.0995256 -0.00344163 0.0687227 0.0420443 0.0305177 0.0503584 0.0895575 -0.0179166 0.0311335 -0.100025 -0.0653157 0.0107868 0.0346694 -0.0761996 0.0658759 0.0940642 0.0857566 0.0206051 -0.0138766 0.0367105 -0.0652541 -0.0391437 -0.0984585 -0.0410983 0.0600878 -0.0700174 -0.0172171 0.0590871 -0.0782525 -0.0665952 0.00118514 0.0563588 -0.091538 0.0836292 0.0314547 0.0623211 -0.0648778 -0.0686988 0.0579043 -0.0814102 -0.0791065 -0.0875895 -0.0752254 -0.0153708 -0.0173286 0.0515221 0.0761426 0.0675481 -0.0854622 0.0466921 -0.0168861 -0.0666781 -0.0314081 0.0216678 -0.0652496 0.0839037 -0.023993 0.0634916 0.0283061 -0.0337093 0.0395033 -0.0069719 -0.0621864 0.0321902 -0.0123813 -0.0770871 0.0890777 -0.0690754 -0.045677 -0.098044 -0.0434483 -0.00571832 -0.0497948 0.0407307 -0.0654395 0.0164508 -0.00465936 -0.0254818 -0.0714061 -0.0153601 0.0142789 0.0291751 0.0725849 0.0745357 0.00618765 -0.0355666 0.0378117 -0.0473614 -0.0151884 -0.0245675 0.0560103
hole 0.0516409 0.0203276 -0.0554944 0.0948741 -0.0396982 -0.105986 -0.00415348 -0.00556163 0.0247575 -0.00795765 -0.0349996 0.0555264 0.0987673 0.087353 0.025461 0.0945946 -0.0226449 0.00792112 -0.0585133 0.0179702 0.0211858 0.0579349 -0.0136877 0.0474694 -0.0557912 0.085062 -0.103263 -0.0493272 -0.0821569 0.0330336 0.0472817 0.0554561 0.0686224 0.0725035 0.0813642 0.0626042 0.0437115 0.0776238 -0.00392004 0.0607904 0.07445 -0.0213713 -0.0265315 0.0906468 0.0138078 0.0639282 0.0145054 0.062179 -0.0724676 -0.00914779 -0.00551566 0.02551 -0.0296101 -0.0818276 -0.0122908 0.0515719 -0.00453783 0.0875687 -0.0171271 0.0651329 0.0499568 -0.0685617 0.0193014 0.0342887 -0.0398849 -0.0443606 -0.0352839 0.00853576 -0.0298176 0.0634706 -0.0507026 -0.0571483 0.0583013 0.0321557 0.0140293 0.0787329 0.0186102 0.0479977 -0.019974 0.0545836 -0.0268171 -0.0363642 -0.0250411 -0.0709497 -0.0211047 -0.0867867 -0.0790313 0.0660448 -0.027072 0.0622498 -0.0250724 0.0384997 -0.0917022 -0.0914663 -0.0812713 0.0483907 -0.0302168 -0.0810223 -0.0829434 -0.0558276
book 0.070995 0.0819961 -0.079913 0.0243623 -0.0307778 -0.0493147 0.0746202 -0.0624179 -0.0140849 0.0715056 0.0481465 0.0438648 0.0787217 -0.0675849 -0.0195647 -0.0030895 0.0407964 -0.0665383 -0.0489797 -0.0627052 -0.0188414 0.092956 0.107317 -0.0645393 -0.0801165 0.0648134 -0.00232711 -0.0295791 -0.0478412 -0.00599913 -0.0163944 -0.0792607 -0.0606373 -0.0186629 0.0809051 -0.0433113 0.0713994 -0.0642544 0.0279745 -0.0816223 0.0914914 -0.0222084 -0.00176689 0.00761923 -0.0819966 0.0580129 0.0694096 0.109723 0.0646266 0.0748447 0.0860927 0.0300304 -0.096227 -0.059765 0.0373702 -0.0184428 0.080746 -0.0611099 -0.0649466 -0.0531781 -0.0448086 -0.0698183 -0.0899402 -0.0128198 0.0105312 0.0393069 0.0727305 -0.0206773 -0.0095759 -0.0595078 -0.0234098 0.049052 0.0159455 0.031251 0.0673641 0.0369952 -0.0852029 -0.0632761 -0.0688352 -0.0826967 -0.0165696 0.0889699 -0.0877813 -0.0502502 -0.00240334 -0.0279771 0.0575758 -0.0573673 0.0171543 -0.0550437 0.0655476 -0.0851489 0.056788 0.069334 0.0110128 0.0573529 -0.0136995 -0.0440173 0.0680865 -0.0423469
‘and -0.0192554 0.104353 -0.0221298 -0.0592488 -0.0379393 -0.0497376 0.0348353 0.0626417 -0.0466967 -0.035684 0.0145417 0.0118462 0.0280851 0.0170571 -0.00651815 0.0384142 0.0327845 -0.0453841 0.0481458 0.0762646 -0.0510853 0.00980204 -0.0582836 0.0804502 0.0363516 -0.0299426 -0.0384111 -0.0167015 0.0711471 -0.0405705 0.00314958 -0.0373565 0.079492 0.036995 -0.0562288 -0.0237237 -0.0176784 0.0859613 0.054183 0.00525416 0.0041344 0.0723099 0.0212319 0.093113 0.0775271 0.0603127 -0.0106644 0.0127918 0.0416451 -0.0335388 -0.0847448 0.0117112 0.0469235 -0.0705775 0.0161446 0.0762815 -0.0964952 0.0560958 0.058131 0.0252227 -0.039169 -0.0608843 -0.0954107 0.0713147 -0.0726957 -0.0301106 -0.0384835 0.053569 0.0146454 0.0106432 0.0484002 0.0718962 -0.0534701 -0.054725 -0.0336326 -0.0244806 0.0394583 0.0154971 0.0472946 0.030635 -0.0345921 0.0912798 -0.021505 0.00691524 0.0633375 -0.0953097 0.0305975 -0.040853 0.0790807 -0.037435 -0.0922451 0.0423975 -0.0180228 0.0639166 -0.0105262 -0.061444 0.0802474 -0.0152884 -0.00598175 0.0943203
well 0.0529796 0.0985518 -0.0632441 -0.00170562 -0.0539756 -0.052435 0.0601769 0.00856363 -0.0363821 -0.0540945 0.0862135 -0.0727688 -0.0552544 0.0894013 0.0508906 -0.0738578 -0.0747932 0.076726 0.0208869 0.023501 0.010549 -0.063626 0.0845297 0.0838777 0.0647668 0.0422617 -0.064131 -0.0990537 -0.0741923 -0.0419831 0.0127354 0.0485543 0.0257461 -0.015577 0.0285672 0.0348671 0.00789358 0.015431 -0.0249638 0.0373873 0.0848402 0.0915289 -0.00808898 -0.0125234 0.0609388 -0.0376254 0.0443256 -0.0365952 0.0095422 -0.0978606 0.0573699 -0.0878983 -0.00531929 0.0654955 -0.062194 0.0344464 0.00580252 -0.0186478 -0.0732673 0.0216481 0.0799142 -0.0554664 0.0749861 -0.0381892 -0.0408706 0.0372126 -0.00702947 -0.0137889 -0.0580892 -0.0895039 -0.0510903 0.0294094 -0.0527225 0.0368884 -0.00743888 -0.0739146 0.0935891 -0.0751062 0.0931382 -0.0899492 -0.0795801 0.0185601 0.0723221 0.0505313 0.0602414 -0.0233359 0.0556481 -0.0530014 -0.0547238 0.0298498 0.0794832 0.0173049 0.0283167 -0.0641678 -0.0819694 0.052116 0.0454444 0.0197728 0.0121589 -0.0554559
looked 0.0646797 0.0997076 -0.0632066 0.0585265 -0.104726 0.0474615 -0.0793692 0.0390973 0.101773 -0.0581535 -0.0727196 0.0666929 -0.00055433 -0.0536688 -0.0527717 -0.0402086 0.00284674 -0.00403819 -0.00456796 0.00213677 0.0289244 -0.0059527 -0.0248721 0.0131808 0.068515 -0.0711418 -0.0257439 0.0886359 0.046707 -0.00300982 -0.0397131 0.0487664 0.00867115 0.0403447 0.0588313 0.0316245 -0.0477531 0.0554266 -0.0984823 -0.103838 0.0809051 0.0504728 0.0717082 0.0709923 -0.0567432 0.0534668 -0.00468912 0.0587834 -0.00175078 0.0393382 -0.0198999 0.0201819 0.0111613 0.0545701 -0.0301436 0.011427 0.0345987 -0.0257654 0.0433225 -0.00622102 -0.0274233 -0.0671216 0.00295642 -0.068523 0.0858121 -0.0906491 -0.0700015 0.0228351 0.0904176 0.0879133 -0.087709 -0.0649277 0.0219038 -0.082913 0.0756823 0.0700826 -0.042591 -0.0726814 0.0583773 -0.0429138 0.058701 -0.0689663 -0.0431549 -0.00693673 -0.0550135 0.00751146 0.0819945 -0.0388261 0.0533791 -0.0113054 0.0155505 -0.0637282 -0.00965635 0.0532181 -0.00492224 0.0527465 0.0267143 -0.0682195 0.0675912 -0.0594955
then -0.0783429 -0.0564373 0.0674992 0.0620437 0.0072618 -0.00299913 -0.0369187 0.046331 0.0381395 0.0846264 0.0165379 -0.0673425 0.00832774 -0.0724446 0.0898874 0.06254 -0.0173641 0.0308562 0.0275814 0.0519204 0.0754353 -0.090694 0.0458612 -0.0368388 0.00529413 0.00927992 0.0680754 0.084702 -0.0834408 -0.00364398 -0.0510277 -0.0158196 0.0624315 0.0584442 -0.0169799 0.0849123 0.00609103 0.0210836 -0.0416356 -0.0226503 -0.0737839 0.0209919 -0.0523151 0.0614706 -0.0366317 0.057027 -0.0588125 0.0373171 -0.00471569 0.045399 -0.101207 0.0137408 0.0727213 0.0411914 -0.0131232 0.0172122 -0.0410588 -0.0102593 0.0571809 -0.0625277 -0.0406111 0.0932157 0.0587101 -0.0624975 0.0769156 -0.0328534 -0.00953745 -0.0310456 0.0726147 0.0147856 0.0511627 0.0346135 0.0712434 0.0606837 -0.0672977 0.0814199 -0.00945849 -0.0614547 0.0133922 0.00680836 -0.0512903 -0.020941 0.0708903 0.0487012 -0.00281691 -0.0656614 -0.0154307 0.0258249 -0.100531 0.0652745 0.0810237 0.0360255 0.0366361 -0.0372548 -0.10387 0.00446685 -0.0267583 -0.0588237 0.0511768 -0.0274318
moment 0.00108305 -0.0240959 0.0214678 0.0818538 -0.030652 0.0884811 -0.0554882 0.0358956 0.00692134 0.00677729 -0.0950579 0.00735743 0.0949548 -0.0381419 -0.0618431 0.014583 -0.0194268 0.0115754 0.0257434 -0.00266703 -0.0636813 -0.0959419 0.0726428 -0.0549517 -0.066093 -0.0748997 -0.0448663 -0.000173544 0.0383956 -0.030804 0.0339782 0.0645104 -0.0860286 0.0858509 -0.0628935 -0.049773 0.079781 -0.0292412 -0.079001 0.0667081 0.00955766 -0.00592235 -0.00122441 0.0670962 -0.0582394 -0.0237228 -0.0956038 -0.0801168 -0.0318926 0.0849312 0.0667866 0.0154668 0.0499891 0.00484772 -0.060997 -0.0714277 -0.0722516 -0.0894466 -0.0539295 0.0577139 -0.0299021 -0.0862232 0.0402344 0.0645027 -0.0023712 0.00159435 0.0762805 0.06431 0.0235268 -0.0617255 -0.0614398 0.0682264 -0.0678291 -0.0215364 -0.0169497 -0.0795066 0.0463256 0.0851129 0.0675638 -0.0595983 -0.0259222 0.0664353 -0.055076 0.0897943 -0.0223476 -0.0941871 0.0267184 -0.0834932 -0.013482 0.0311888 -0.0370297 -0.0863576 -0.00048865 0.0834577 -0.00728933 0.000512381 -0.0260082 0.0231956 0.0736142 -0.0849636
again -0.0645813 0.0761223 -0.0164846 -0.0647001 -0.0521555 0.0143886 -0.0261966 -0.064642 -0.00913303 -0.0234603 -0.0723738 0.0316304 0.0815653 0.0121139 0.10095 -0.00637772 0.0704289 0.051124 -0.0404337 -0.0343496 -0.0207284 -0.0329906 0.0625599 0.0275919 0.0236776 -0.0109488 -0.052813 0.0429224 0.0115628 0.00405347 0.0192881 -0.0941588 -0.0949874 0.0855574 0.0656427 0.0276751 -0.00662906 0.0958611 0.0184429 -0.0200936 -0.0278466 -0.00690681 -0.057572 -0.00118276 -0.0102401 -0.0177219 -0.035767 -0.103165 -0.0764669 0.0640456 0.012072 0.0823321 0.0498544 -0.0954817 0.045105 0.0115719 0.0112263 0.0484505 -0.022677 -0.0721943 -0.0314186 0.0482472 0.0898259 -0.0523546 -0.0383474 -0.0787371 0.0453648 -0.0633546 -0.0279303 -0.060318 -0.0117256 -0.0384473 0.0688242 0.0252527 0.0300596 -0.0407752 0.0097163 -0.0712564 0.0726853 0.0652191 0.0277065 -0.0894881 -0.0654589 -0.0846402 0.079498 -0.0539768 0.0155471 -0.058964 0.0414754 -0.0117498 -0.0559834 0.0595228 0.0231 0.0675235 -0.0138823 -0.00903013 -0.0454788 0.000857211 0.043897 -0.042729
found -0.105958 -0.0741094 0.00388997 0.0431236 -0.0204291 -0.08804 0.0687213 0.0715644 0.0137524 -0.104466 0.0101641 0.0626719 0.0248295 -0.0227562 -0.0773904 -0.0425845 -0.0185025 0.014623 0.0846318 -0.0708221 0.0543207 0.0325508 -0.00953846 -0.0838719 0.0439672 -0.0823602 -0.0250019 0.0884732 0.00340707 0.0717495 0.0205261 0.00812409 -0.0678291 0.0961094 -0.0873292 -0.041759 0.0829307 -0.0404986 0.0219967 -0.0239306 0.0142567 0.021004 -0.101235 -0.0295003 0.0428612 -0.00652237 0.00149384 -0.000444232 -0.0433743 0.0578078 0.0776621 -0.0336214 0.0574591 0.0354158 0.0439302 -0.0260864 0.0271136 -0.0754083 0.0206324 0.057218 -0.066411 0.0202729 0.0135393 -0.0388413 0.050771 -0.0809074 -0.037251 0.0694533 0.0928191 -0.0750446 -0.034666 0.0504588 -0.0752592 0.065796 -0.0834633 0.0329875 -0.09143 0.0692516 -0.0954614 -0.0838372 0.0488154 -0.0525179 0.0760839 -0.0450235 -0.00499852 -0.052821 0.0902698 0.0118235 -0.0123939 0.0697171 0.0201264 -0.0749535 -0.0655623 -0.0478349 0.0788298 -0.0861324 0.0489558 0.0118816 -0.0118393 -0.0335598
first 0.0848272 0.0028632 -0.00187334 -0.0296269 -0.0106111 -0.0677277 -0.0174605 0.013947 0.0943772 -0.00640746 -0.0223398 -0.0642024 0.0825887 -0.0122648 0.0792065 0.0384833 0.0720427 -0.0171467 0.0220381 0.037548 0.0806203 -0.0077521 0.037228 0.0555665 0.00141406 0.0418442 0.0451786 0.0753504 0.00313117 0.0162414 0.0723289 -0.0780474 0.0780143 0.09903 -0.0368037 0.0584788 0.016865 -0.0267178 0.0909074 0.00171795 -0.0404006 0.0700904 -0.0870403 -0.0373048 -0.0123605 -0.0523563 0.0105627 0.072656 0.0624107 -0.0249004 -0.0499749 0.0115279 -0.048276 -0.00291042 0.0629831 0.0816539 0.0906537 -0.068502 -0.0754031 -0.0879783 -0.072796 -0.0272566 -0.103058 -0.00592993 0.0379724 0.0684229 0.087064 -0.0229743 0.022443 -0.0301958 -0.059421 0.0641845 -0.0427617 -0.0996237 -0.0668118 0.0377783 -0.0451992 0.0252928 -0.0583557 -0.0439152 -0.00799375 -0.0314375 -0.0636951 -0.0401358 0.0163003 -0.029943 0.108087 -0.033464 -0.0437715 0.0452104 -0.0963685 -0.0163193 -0.0969204 -0.0954028 0.00115731 -0.022521 0.0248403 0.0412356 0.0548379 0.0272481
too 0.0912517 0.0716137 0.0018045 -0.0387252 -0.0608473 -0.081675 0.0458032 -0.0464817 0.00141614 0.0551285 -0.0924601 -0.00597998 -0.054836 -0.0758505 -0.0903748 0.055955 0.0814314 -0.0123444 -0.0635578 0.00831182 0.0782379 0.0558817 -0.0583871 0.0380895 -0.00556883 -0.0632424 -0.0799891 -0.0896514 0.0734142 -0.0326384 0.0697768 -0.0755303 0.0104719 0.0751901 -0.0660728 0.0707985 -0.0974969 0.0138951 0.0328136 -0.00287426 -0.0770483 0.102422 -0.00330105 0.0496815 0.00321708 -0.0800559 0.0521872 -0.0229211 -0.0765599 -0.0174563 0.00334339 -0.0826879 0.0826335 0.0315112 0.0293639 0.0025295 0.0651707 0.0869001 0.0901234 0.0727112 -0.0726343 0.024252 -0.0522327 0.00333095 -0.0214421 0.0326545 -0.0497687 -0.0313621 -0.0743195 0.0274389 -0.0163842 0.0572096 -0.0763726 -0.00492342 -0.0772247 0.0778018 -0.0120113 -0.0903152 -0.0269625 0.000159465 0.0658508 0.00305724 -0.0556092 -0.0767085 -0.021054 0.00911618 -0.00721275 0.0729324 -0.0820616 0.069024 0.0599438 0.0849839 0.104745 -0.0411467 0.0384771 0.00058289 0.027038 -0.0148145 -0.0247207 -0.0299196
they 0.0252348 -0.0927863 0.0286392 -0.0454165 0.0766687 -0.0449794 0.0350351 -0.0473274 -0.0840439 0.00504454 -0.0839742 -0.00156482 -0.10013 0.0248391 0.059159 0.0624275 0.0555819 -0.0301599 0.0615646 -0.0841796 0.0177697 -0.0449013 0.0659242 0.00716708 -0.0326143 0.0450377 0.00840354 0.0610742 0.0825598 -0.0162535 -0.066764 0.0844289 0.00632467 0.00832215 -0.0812816 -0.0450959 -0.0328138 0.0283551 -0.0715997 0.0523783 0.0774875 0.0518036 0.037246 0.0165242 0.0336285 0.0118767 0.0364674 0.0232725 -0.0423838 -0.0508209 0.0893833 0.0268242 -0.0899502 0.0262509 -0.000134266 0.000786819 0.104018 0.0320963 0.0297569 -0.00951712 -0.093521 0.0323524 -0.0396583 -0.0427057 -0.0623784 -0.012468 0.0876502 0.0889889 -0.0543863 0.041232 0.0112578 -0.0237021 -0.0886114 -0.0771306 0.0181296 0.0501391 -0.000112164 0.056723 0.0631561 -0.0570252 0.0525039 -0.00827324 0.0833425 0.0261039 -0.0783429 -0.0898816 0.0464808 -0.00231094 0.00850165 0.0816421 0.0271776 -0.0570849 0.00419461 -0.094448 0.0800547 -0.0123429 -0.0189606 -0.0781549 -0.07725 0.0220172
here 0.0806523 -0.0779936 -0.0711429 -0.068772 -0.0912146 0.0105755 -0.0438239 -0.0346776 0.0771222 -0.0375474 -0.0203593 -0.0398861 -0.0719988 -0.03538 0.0850401 -0.00239656 -0.0921325 -0.0378998 0.0172841 -0.00431026 0.000294576 -0.0358996 0.0824572 -0.0194759 -0.0166986 0.0217661 -0.00778507 0.0620205 -0.042188 0.0560253 -0.0507593 -0.0659087 0.00528896 -0.0773765 0.0206905 0.019616 -0.0648814 0.0467632 -0.0461749 -0.0400545 -0.0121049 0.0451581 -0.054606 0.0990347 -0.0452621 0.00846328 -0.0275511 -0.0959621 -0.00215148 -0.0169143 -0.0400014 0.0619495 0.0484847 0.0427814 0.0798976 -0.0337679 -0.0543237 -0.0544357 -0.0413739 -0.0908384 -0.0789171 0.0434657 -0.023464 -0.004762 0.0133547 0.0945746 -0.00350045 0.0596643 -0.0254392 -0.0441279 -0.0611056 -0.0762633 -0.0448425 -0.082137 0.0956669 -0.00254781 -0.0692965 0.0266856 0.0629185 -0.00434832 -0.0434575 -0.0950307 -0.0124504 -0.0449141 -0.025153 0.0774392 0.0233497 -0.0953949 0.00692712 -0.0273669 -0.0532271 0.0743709 0.094671 0.0523769 0.052995 0.0728718 -0.0419192 -0.0226988 0.00347945 -0.0326401
upon 0.00203937 -0.0777831 0.0833969 -0.00290741 0.0631043 0.0513466 -0.0906644 -0.0857301 0.0449726 -0.0630374 -0.0853358 0.0925198 0.100826 -0.0546643 0.0471932 -0.0432913 0.0326589 -0.0291386 0.0494191 0.0492795 -0.0626529 0.0554708 0.0618764 0.0428505 0.0458593 0.00210298 -0.00826477 0.00734912 -0.0422498 0.0585569 -0.0522823 0.0228943 -0.0584191 0.0039113 -0.0195062 0.061864 0.05943 0.0631353 -0.0280475 0.0827321 0.10142 0.0143955 -0.0325597 0.0702307 0.060945 -0.0214337 0.0408779 -0.085601 -0.0999222 0.0408237 -0.0515641 -0.00223734 -0.0425748 -0.0959748 -0.0521136 -0.0186865 -0.0870692 -0.0622544 -0.00357766 -0.0749421 -0.00382894 -0.0705748 -0.0579551 -0.00374505 0.106279 0.0589673 0.0500068 0.0491685 -0.0862907 0.0680611 0.0755154 -0.0169547 -0.0571664 -0.0262887 -0.0787138 -0.0949641 0.0722473 -0.0113546 -0.0239844 -0.0240455 0.102672 0.0637328 0.0193785 -0.00781757 0.0533075 0.0231502 0.00685984 -0.0578921 -0.0591852 -0.0888968 -0.00696569 0.0496772 -0.109136 -0.0278428 -0.0544793 0.0639952 0.038307 0.0468803 0.0190125 0.0496
fall -0.0434762 0.0713449 -0.0135754 -0.0410391 -0.0293761 0.0384055 -0.0195906 -0.0671487 0.0773449 -0.0468535 -0.0755544 -0.0342043 0.0598109 -0.0205062 0.00364703 0.0882733 0.0120983 -0.022895 -0.0675689 0.0922019 -0.0899027 0.068598 0.0770863 0.100728 -0.0603431 -0.0240785 0.0653712 0.0124591 0.0720816 0.0733263 0.0446155 0.0665272 -0.0158641 -0.0404271 -0.0141842 0.050354 -0.0258564 0.0289229 -0.0280636 -0.0840986 0.0628435 -0.0405803 0.0631694 0.0927597 0.0192861 0.0612144 0.0271442 0.0984357 -0.0218071 0.0494987 0.0546533 -0.0137538 0.0525752 -0.0323203 -0.0372333 -0.0246322 -0.0304751 -0.00215197 -0.0771675 0.0764116 0.0541768 0.0975586 0.0878308 0.0336493 -0.0574717 -0.00961807 -0.0805246 -0.0222065 -0.0596559 -0.00448091 -0.0659731 -0.0404133 -0.0508585 0.0629487 -0.00938427 -0.0721572 0.0608031 0.0851755 -0.0862095 0.0687685 0.0522124 -0.0624727 -0.00343774 -0.00897221 0.0254547 -0.0603006 0.070788 -0.034213 0.0315382 -0.00540263 0.065207 0.0338355 0.0935033 0.0867601 -0.0639605 -0.071185 -0.0761647 0.0966283 0.00920133 0.0563904
off 0.0525855 0.0282813 -0.0306788 -0.00291124 0.0130652 0.0298451 -0.0473028 0.068915 -0.0661206 0.0550609 0.00144382 -0.0368973 0.0214412 0.0703709 0.0059067 -0.0128326 0.0152236 0.0286917 -0.0469657 0.0525929 -0.0502304 0.0790395 0.0759745 0.00992488 0.0843903 -0.0578917 -0.0899145 0.0418679 0.0301951 -0.0830782 0.0183876 -0.0591712 0.0853515 -0.0331012 -0.0661959 -0.0132367 -0.0938691 0.0816165 -0.0842513 -0.0504136 0.0690627 -0.0837328 0.00338926 -0.021321 -0.0907141 0.0415005 0.00832448 0.0465498 -0.0903915 -0.0613314 -0.0552564 -0.00234806 0.0111298 -0.00138142 -0.076275 0.04206 -0.0539742 -0.0338501 0.0057366 -0.00126356 -0.0568524 0.00571065 0.0855255 -0.0580055 0.0796017 -0.0953671 0.086062 -0.047295 0.00939914 0.0518136 0.0293332 -0.071472 -0.0962106 -0.0840161 0.0116083 -0.0373915 0.0210683 -0.00995525 -0.0505771 -0.0303864 -0.0268049 0.0830141 0.0397859 -0.0248911 -0.0750831 -0.0752687 -0.0306242 -0.0349244 -0.0119392 0.0204627 0.0592653 0.0559246 -0.00184619 0.0395482 0.0565489 0.0102318 0.0698106 -0.0241138 -0.0261196 -0.0142612
said -0.0467453 -0.0305654 0.0176853 -0.0154149 -0.0569375 0.0505117 0.0684575 -0.0373062 -0.0565601 0.0104746 0.0233866 0.0139149 -0.0848503 -0.0745853 0.0845793 0.0751591 -0.00457017 0.0951794 -0.0447847 -0.0773337 -0.008887 0.0381407 -0.0389133 0.0116481 -0.0106239 -0.0206881 0.0766023 -0.0188765 -0.0311302 -0.0410165 0.0791964 0.0304187 0.0139192 0.0402659 0.0120603 -0.00956569 0.0813454 0.0167548 0.0490263 -0.0397376 -0.0202013 0.0205607 0.0878389 0.0566144 0.0468509 -0.0826781 -0.0206288 0.0190353 0.0706214 0.0623147 -0.00793204 -0.0489387 -0.0684796 0.0204691 0.00109166 -0.0378615 0.0189559 0.0638897 0.00321691 0.0415782 0.0512724 -0.0734785 0.0118691 0.0650408 0.0183853 -0.0421009 0.0110774 0.0566874 0.108057 0.0811802 -0.00335181 -0.0538577 0.0253132 -0.0740051 0.0444016 -0.0123673 -0.0426224 0.0451085 -0.0629888 0.0913675 -0.0771935 0.095365 3.40078e-06 -0.0350555 -0.00592596 -0.0971185 0.0910068 -0.0500293 -0.0878955 0.0938827 -0.0217375 0.0560935 0.0246291 0.0925911 -0.029901 -0.0912589 0.00344309 0.0379761 0.0137702 -0.00258581
things 0.0347036 -0.0516903 -0.080115 -0.0775033 0.0292415 0.0803117 0.0654598 -0.0475171 -0.0561219 -0.0317074 -0.021461 -0.00261754 -0.0223808 0.00103 0.0581174 -0.060133 0.00224179 -0.0373969 -0.00713917 -0.0449742 -0.0295796 -0.0649849 -0.0345585 -0.0725556 0.0562088 -0.0692115 0.0842381 0.0563313 0.093064 0.0167329 -0.0297959 -0.0819539 -0.000763445 0.029435 -0.000733761 0.0227633 0.0255083 -0.057461 -0.0708793 -0.0216132 -0.0293334 -0.0670529 -0.00214577 -0.0291451 0.0467354 0.0724468 0.0139978 -0.0714005 -0.0601511 -0.0599775 -0.0990685 -0.0455873 -0.0333951 0.0541127 -0.0283515 -0.0818769 -0.0598008 -0.0892513 -0.0573153 0.0636792 0.00618327 -0.0930764 -0.0271754 -0.0505 0.0841062 -0.0456389 -0.0966996 -0.0566973 -0.0454863 -0.0111424 -0.0850056 -0.0393858 -0.076956 -0.00267644 0.0389972 -0.0588966 0.0573588 0.068993 0.00997941 0.0152399 0.052534 -0.0232811 0.00948063 -0.0105278 0.077371 0.0825726 -0.0743897 -0.0388318 0.0283095 0.0214241 0.0127221 -0.0755386 -0.0408011 -0.045657 0.0837105 0.0764326 0.0788662 -0.0537137 0.0521049 0.0476405
